encog,BasicNetwork,java,3.2.0,1,1521294311145
[BASIC]
[BASIC:PARAMS]
[BASIC:NETWORK]
beginTraining=0
connectionLimit=0
contextTargetOffset=0,0,0,0,0,0
contextTargetSize=0,0,0,0,0,0
endTraining=5
hasContext=f
inputCount=1024
layerCounts=1,2,4,32,128,1025
layerFeedCounts=1,2,4,32,128,1024
layerContextCount=0,0,0,0,0,0
layerIndex=0,1,3,7,39,167
output=0,0,0,0,0,0,0,0,0,0,0,0,0,0,0,0,0,0,0,0,0,0,0,0,0,0,0,0,0,0,0,0,0,0,0,0,0,0,0,0,0,0,0,0,0,0,0,0,0,0,0,0,0,0,0,0,0,0,0,0,0,0,0,0,0,0,0,0,0,0,0,0,0,0,0,0,0,0,0,0,0,0,0,0,0,0,0,0,0,0,0,0,0,0,0,0,0,0,0,0,0,0,0,0,0,0,0,0,0,0,0,0,0,0,0,0,0,0,0,0,0,0,0,0,0,0,0,0,0,0,0,0,0,0,0,0,0,0,0,0,0,0,0,0,0,0,0,0,0,0,0,0,0,0,0,0,0,0,0,0,0,0,0,0,0,0,0,0,0,0,0,0,0,0,0,0,0,0,0,0,0,0,0,0,0,0,0,0,0,0,0,0,0,0,0,0,0,0,0,0,0,0,0,0,0,0,0,0,0,0,0,0,0,0,0,0,0,0,0,0,0,0,0,0,0,0,0,0,0,0,0,0,0,0,0,0,0,0,0,0,0,0,0,0,0,0,0,0,0,0,0,0,0,0,0,0,0,0,0,0,0,0,0,0,0,0,0,0,0,0,0,0,0,0,0,0,0,0,0,0,0,0,0,0,0,0,0,0,0,0,0,0,0,0,0,0,0,0,0,0,0,0,0,0,0,0,0,0,0,0,0,0,0,0,0,0,0,0,0,0,0,0,0,0,0,0,0,0,0,0,0,0,0,0,0,0,0,0,0,0,0,0,0,0,0,0,0,0,0,0,0,0,0,0,0,0,0,0,0,0,0,0,0,0,0,0,0,0,0,0,0,0,0,0,0,0,0,0,0,0,0,0,0,0,0,0,0,0,0,0,0,0,0,0,0,0,0,0,0,0,0,0,0,0,0,0,0,0,0,0,0,0,0,0,0,0,0,0,0,0,0,0,0,0,0,0,0,0,0,0,0,0,0,0,0,0,0,0,0,0,0,0,0,0,0,0,0,0,0,0,0,0,0,0,0,0,0,0,0,0,0,0,0,0,0,0,0,0,0,0,0,0,0,0,0,0,0,0,0,0,0,0,0,0,0,0,0,0,0,0,0,0,0,0,0,0,0,0,0,0,0,0,0,0,0,0,0,0,0,0,0,0,0,0,0,0,0,0,0,0,0,0,0,0,0,0,0,0,0,0,0,0,0,0,0,0,0,0,0,0,0,0,0,0,0,0,0,0,0,0,0,0,0,0,0,0,0,0,0,0,0,0,0,0,0,0,0,0,0,0,0,0,0,0,0,0,0,0,0,0,0,0,0,0,0,0,0,0,0,0,0,0,0,0,0,0,0,0,0,0,0,0,0,0,0,0,0,0,0,0,0,0,0,0,0,0,0,0,0,0,0,0,0,0,0,0,0,0,0,0,0,0,0,0,0,0,0,0,0,0,0,0,0,0,0,0,0,0,0,0,0,0,0,0,0,0,0,0,0,0,0,0,0,0,0,0,0,0,0,0,0,0,0,0,0,0,0,0,0,0,0,0,0,0,0,0,0,0,0,0,0,0,0,0,0,0,0,0,0,0,0,0,0,0,0,0,0,0,0,0,0,0,0,0,0,0,0,0,0,0,0,0,0,0,0,0,0,0,0,0,0,0,0,0,0,0,0,0,0,0,0,0,0,0,0,0,0,0,0,0,0,0,0,0,0,0,0,0,0,0,0,0,0,0,0,0,0,0,0,0,0,0,0,0,0,0,0,0,0,0,0,0,0,0,0,0,0,0,0,0,0,0,0,0,0,0,0,0,0,0,0,0,0,0,0,0,0,0,0,0,0,0,0,0,0,0,0,0,0,0,0,0,0,0,0,0,0,0,0,0,0,0,0,0,0,0,0,0,0,0,0,0,0,0,0,0,0,0,0,0,0,0,0,0,0,0,0,0,0,0,0,0,0,0,0,0,0,0,0,0,0,0,0,0,0,0,0,0,0,0,0,0,0,0,0,0,0,0,0,0,0,0,0,0,0,0,0,0,0,0,0,0,0,0,0,0,0,0,0,0,0,0,0,0,0,0,0,0,0,0,0,0,0,0,0,0,0,0,0,0,0,0,0,0,0,0,0,0,0,0,0,0,0,0,0,0,0,0,0,0,0,0,0,0,0,0,0,0,0,0,0,0,0,0,0,0,0,0,0,0,0,0,0,0,0,0,0,0,0,0,0,0,0,0,0,0,0,0,0,0,0,0,0,0,0,0,0,0,0,0,0,0,0,0,0,0,0,0,0,0,0,0,0,0,0,0,0,0,0,0,0,0,0,0,0,0,0,0,0,0,0,0,0,0,0,0,0,0,0,0,0,0,0,0,0,0,0,0,0,0,0,0,0,0,0,0,0,0,0,0,0,0,0,0,0,0,0,0,0,0,0,0,0,0,0,0,0,0,0,0,0,0,0,0,0,0,0,0,0,0,0,0,0,0,0,0,0,0,0,0,0,0,0,0,0,0,0,0,0,0,0,0,0,0,0,0,0,0,0,0,0,0,0,0,0,0,0,0,0,0,0,0,0,0,0,0,0,0,0,0,0,0,0,0,0,0,0,0,0,0,0,0,0,0,0,0,0,0,0,0,0,0,0,0,0,0,0,0,0,0,0,0,0,0,0,0,0,0,0,0,0,0,0,0,0,0,0,0,0,0,0,1
outputCount=1
weightIndex=0,2,10,138,4234,135434
weights=##0
##double#135434
   0.2991154839,-0.5028393902,-1.255054768,546.4610584513,-0.5189880741,4.2530245886,0.7201654245,-7.3357398092,1.7157744347,-2.7269684255,4040.6675548975,5.4902699144,5971.9550545449,15.0417621913,3229.4583498707,3317.772003397,4033.8295996118,1726.6923303918,3317.648946001,7747.9821173279,7298.912830424,1708.5786072988,2.5509555099,14.445672335,510.6305576666,48.6619112193,1851.8358790139,2005.0676163499,1726.7418145762,-3.987636793,79.9795248658,34.0494722228,1469.9882891393,3220.2878314364,3841.8353229631,1725.8691293608,783.4975703968,130.4147776795,6727.09985474,1726.5293031877,3025.3097875537,6383.6211940203,-8778.4395571584,-737.1532106628,-9830.7154020887,-1229.4991773436,-8510.9926457992,-8511.2428084742,-8362.4929695384,-5558.1040258102,-8511.6372225417,-11939.6117461288,-10757.0660635547,-4865.0703493633,-1216.4070016513,-1216.3192576675,-1975.9789593804,-2726.917536934,-5428.1146963662,-5140.9644089585,-5557.4358164415,7.6098631112,-1760.7687214427,-2727.3202749397,-5557.0286360951,-8511.5962791964,-8439.109151104,-5257.2464662913,-4982.8519731828,-3638.1552363194,-11409.007558139,-5841.6577929394,-8228.745716771,-9989.2983492139,2743.1740885561,0.3996384865,4697.0214170962,-2.308563414,2047.7476467031,2495.9225026082,1618.8858559212,26.1378972839,2496.7412900389,4344.6907320201,2011.7306547101,10.3836431597,14.6946625313,2.3849308422,73.1049972518,2.2305209589,198.0344806228,24.9419881166,25.0799367431,-3.3842650763,5.6117788082,1.2373879216,18.6706855438,2047.2005577061,1336.2337105891,25.8501162778,1.6061745183,1.8527201366,3747.1061230665,17.3748944138,1451.7435395644,4878.3708821879,-366.3595998678,1.8795160705,-5.6659521721,4.0095349844,-47.2356522442,-45.9967810875,-45.5577645584,-5.7349731979,-46.5380477395,0.0916924474,-0.336066318,-1.1252106743,4.589884198,4.2380588717,-21.355627722,-32.7399946713,-17.6640686416,-5.2543209469,-5.5304631986,4.9113450845,1.5678185545,-32.6653884264,-17.7952513218,-47.3417042746,-17.6969326891,-5.5452605305,-1.2310670558,-1.2200794907,-0.3807320002,-5.5454312938,-17.7062035661,-54.8890861903,-6357.9643184742,-4585.3117660888,-3659.7995921215,6569.9529772353,-6408.0811270316,-6493.9330006538,-4965.0069725753,-2144.839224018,-3841.7520632369,-5389.7822443829,-4254.8441788143,-5077.0467502191,-2714.8034099188,-4782.8467842539,-6497.3695978308,-5909.2562234143,4830.2181790796,-6798.6822384301,-4961.318344521,-5893.5490117734,-4599.6311311587,-4835.1215146404,-5827.8835514264,-5822.113897893,-4077.7961197728,-3821.8242629335,-4628.2599823712,-6496.3789416887,-4560.051310145,6527.0816727693,-4670.3974366064,-4316.2881826994,-3176.3928764933,-5091.3801510218,-4564.4069107472,-5171.6224085752,-5575.1642235431,-3375.5814782702,-5806.2743999973,6215.1340462329,-4469.852975542,-6126.6738472892,-5072.9024066276,-6126.5361813419,-3803.8727660895,-6280.8737548058,-3888.427336779,-5569.1180352466,-4352.7845778881,-4989.0632157203,-616.0259931869,-2951.1766530931,-5936.7445891713,-4642.3075678465,-5552.8753791169,-4923.7211306684,-4709.7312658161,4488.8285918355,-5995.9267960928,-4989.8356944188,-4388.4372971141,7148.7848535368,-377.8467694834,-4986.7565744677,-3727.9723268914,-3964.0725976183,-6732.054602317,-4547.7364113284,-3460.4031888173,-6845.7792833805,-5359.3041278842,-4733.5225884831,5955.9753619999,-5304.0257014605,-3376.4386252832,-4386.3493605747,-5269.7764879634,3647.8068743628,-3965.9302913585,-4955.6512027639,-4433.8784599208,-4470.876116835,-4330.7110271211,-3717.5861794318,-4140.5086295101,-2705.0627048514,-6496.0136165289,-792.864537525,-6358.4817465337,-5448.3889071482,-4357.5416624374,-6008.3158025826,-4665.5689402716,-5411.2702016341,-4898.0221655253,-4546.7882036647,-5270.5523327137,-4042.5766484275,-4431.3565954755,-4450.8143393238,-2419.8092224732,-5996.2485301236,-4693.0778224572,4014.2643633436,-4966.142224032,-3806.0071322932,-4391.5687537669,-5497.5389324405,-4303.8067896778,-4650.0191155469,-4283.918831876,-5821.8542686847,-6318.7138171124,-5015.1272524737,-3838.5186739565,-5333.1645911821,-5259.2868476571,-4127.9321841421,-5983.8937283308,-4645.9090016336,-4410.8645428799,5669.5904921913,-2721.7274511776,-4389.4774323393,-4733.810822091,-6196.1515907761,-3222.8582449662,-5706.0304725589,-1423.0329503741,-1873.8680856851,3689.796737086,-4266.4972137692,1213.7280647428,-15.7979877471,-1561.2095372528,3978.9956108112,-1878.679976199,-2964.3210697478,-889.9882879139,-1354.8319323487,4145.8985344418,-3272.6952447776,191.3297821681,1117.6383979585,-3303.1278286447,1591.6725336184,-1402.9929707578,1132.2475528378,-1547.1453208251,-1478.1912276868,-2915.379770988,-1542.8256841455,4970.4652597821,-1550.3918033486,-1507.144235266,191.2507359835,-2192.2778203287,729.2910954589,-1056.3106179945,-1207.4037503321,-2802.2181041573,-3194.0991399774,-2482.1305844647,-772.7587875295,-1442.7494645785,5002.1704127772,-1560.457443616,-3978.18608717,-3176.9702102382,-377.5086170533,-2359.3561109903,-377.0843497176,4144.5938096807,998.9451455998,-1688.7452864625,-1492.2213748307,-2096.2087552334,-1132.956289433,4298.3518936638,4665.1640566655,-600.7520643392,-218.5485680675,-1150.7557177073,-1210.4168370307,-2881.342075155,-4666.8801793566,1389.272906845,-1105.9337922607,-1124.2868688788,-6228.0393184554,3351.7584173758,-670.466146614,-2095.2341238804,-889.7149618625,2455.127051109,470.7986719927,-3296.3798834196,918.3344985746,1409.2600335769,-1477.3957787245,-457.8354496491,1888.4735223923,-1679.0621136899,-1981.082576326,-2660.7221183539,2106.6144373638,-1325.1332292883,-1062.6031950747,-3037.7432671789,-1347.2486136398,-2081.4786000462,-841.6811797802,-2182.3544368604,4688.8577409929,-119.9885720206,3350.3792274559,-435.4536568678,-956.3875934134,-2061.4391296949,-186.0093833475,-1424.517273743,3941.2304673847,797.7018841451,-1517.5113787682,-1560.0230276842,-3187.8176511183,-2182.245493683,-2084.846772391,-2183.7001185795,1387.0155816231,-1023.9895121302,-5721.534538013,-408.5811303378,-3082.1673498368,-1348.061031702,-3250.3110821947,-892.9372316961,670.3175162445,-1327.886012166,-1545.3349431952,-255.0853024694,-2179.8807536301,-1527.2487520394,-1377.5920340411,-1136.2606557462,-2194.9118686548,1000.9784292094,-1062.6178266591,-562.0209231669,-122.8007243862,3867.4493481268,-670.6410905527,-1874.1988271054,708.6227937376,-1602.6678210624,-2675.3019124817,-7153.8305962581,-5280.5063937906,-4355.3216131549,6196.9207401257,-6813.8195418761,-7233.8173811049,-5660.7645990888,-2939.6340677702,-4536.7820004492,-6185.4485352925,-5050.4807923111,-5872.0421690679,-3510.4467037004,-5577.6888258996,-6963.2573704862,-6704.8489996465,4205.7189139176,-7493.2396753231,-5756.8998742718,-6689.0193464328,-5295.1850791001,-5530.6104513492,-6623.6160371669,-6245.5374438911,-4872.8136979575,-4226.7167840505,-5323.738250789,-6962.5858875893,-5255.0889967906,5732.2979605828,-5465.9296089178,-5112.1252423705,-3872.5737219644,-5886.9157672033,-5259.1758414298,-5867.8794945573,-6085.5659207694,-4170.0765718797,-6230.3132527697,5655.329432246,-5263.8671370741,-6821.6834196605,-5869.3524267992,-6821.7473766707,-4498.5403025331,-7076.0288448275,-4973.9020677252,-6364.5744239331,-5048.1288273843,-5785.0728200645,-1410.6105528949,-3746.7739047123,-6632.6612904232,-5436.599434979,-6348.3046275998,-5719.7450483133,-5506.020764963,3662.6679191102,-6791.3641730987,-5685.7871819,-5183.3536429942,6244.7188771919,-1173.3746897422,-5781.7480363453,-4424.5800145935,-4758.8897486882,-7138.1753500765,-5343.5917835593,-4255.779832938,-8048.6197875959,-6155.4166621106,-5528.3178695358,5260.0917687109,-5833.6380537444,-4171.1213387968,-5181.6416150813,-5684.0743262371,2952.0212157948,-4662.1160059773,-5751.288073758,-4991.4944864558,-5266.4951987891,-5026.108888201,-4412.1295927279,-4834.8303354465,-3501.1590197065,-6962.4375085993,-1487.0748327104,-7154.0576037083,-6549.9299298983,-5052.4045160409,-6802.9393211804,-5461.2995837459,-6206.6365204573,-5593.6046550941,-5242.7029482116,-5966.8578467986,-4584.6121578146,-5126.2963541401,-5548.9551142375,-3215.5542140965,-6791.2150417053,-5487.9118095808,3390.2806205104,-5761.7896491627,-4650.3340172514,-5186.9275287946,-6293.1010952234,-5100.0432540058,-5444.5781502575,-5385.8581726648,-6245.3889370292,-6807.7254416462,-5709.8038323635,-4244.3412795055,-6129.4913678604,-6056.0343924696,-4822.5776606059,-6779.5266999126,-5441.4255468163,-5206.453824225,4973.7388545723,-3517.6911895025,-5184.6645826948,-5428.7152927664,-6991.4907447978,-3918.9581115417,-6501.0038750374,-792.5055228725,-2462.5634356802,3415.189122933,-5073.3887271049,1668.4617604851,-51.6074161843,-1833.1858006591,3691.5163138284,-2181.5493402493,-980.5747240778,-1677.4660387248,-1354.1154002443,3858.6888872695,-2417.7990678904,-76.7602032822,1420.2647375408,-3836.541526249,1673.4581062187,-1368.7495655152,1341.365743795,-2445.6770971127,-2128.0488739568,-210.1031838494,-1198.2935447242,5099.0014141366,-2197.6304255141,-1161.3824967419,-76.4695320306,-2194.8755465904,717.3402442165,-573.5581584849,-1856.4942385109,-3912.9553987988,-2294.8679827588,-2189.1710410461,-1560.8299544272,-1097.7325854986,4718.4131422269,-1216.6054025649,-4622.4909672654,-2734.4427597339,-808.8714165459,-1930.6434631992,-808.6796454494,4200.6546985015,901.4915703054,-2284.3811173931,-669.0337130668,-1490.0236698683,-1475.8619443145,4308.3330938998,4661.0857406059,-324.5883010531,-664.2042176005,-1491.545081891,-1550.3651879147,-2598.603869895,-4072.819617947,1804.6916432488,-1757.8738487571,-1775.0951138003,-6633.5488374501,3351.6933473623,-1455.2128270556,-1797.140979937,-1677.5636220994,2288.8436827083,783.3475528014,-3172.4692698676,1107.5259877493,1409.2101675563,-1119.0286012376,532.3073416103,1309.8892071733,-1984.6969970048,-1755.3789722672,-2080.9516056647,3065.7187150487,-1664.4163217304,-1053.9945678108,-2460.319586777,-1688.0597266215,-1779.4608074807,-1625.9940541991,-1878.5912908147,4114.2989677241,-390.2047441411,3007.2903726862,618.7879805448,-179.0152897436,-1747.242379121,734.5561289577,-1787.9463412678,4280.8043323004,797.1054365351,-2129.3092045218,-1022.0034810048,-2897.0922309653,-1878.595605349,-2721.5396133109,-2471.1633814327,1803.7516459122,-1018.5352179395,-5565.2631862376,-1150.5872431528,-2807.1800511107,-1632.572322528,-2397.8978105966,-1324.7172397886,370.8705928497,-1667.353657448,-1201.689086029,-291.1050706489,-2175.3702482014,-2148.053013229,-1377.7038062927,-1126.1199626267,-1582.5932840728,1011.8718419711,-1053.4618247309,-1352.3134109078,588.5254346429,3859.1213400022,-1764.6970585395,-1546.8391019374,709.6384832579,-1609.5987524614,-1214.4705794306,-6358.8178702526,-4585.9453433032,-3660.4091724436,6279.8978167403,-6118.6757553024,-6493.4611483383,-4965.6244524875,-2144.107211552,-3842.3760919902,-5390.3180385286,-4255.1274449097,-5077.3656278194,-2715.2690891719,-4781.8986318462,-6497.0910595746,-5908.7861335556,4779.2976274739,-6798.1708231885,-4961.647144869,-5893.339038453,-4599.7925874435,-4835.359835644,-5828.0580417586,-5821.8185916557,-4078.1313742331,-3821.5145782478,-4627.511534887,-6496.6558661975,-4560.0184102492,6527.6939894303,-4960.1482097357,-4316.2726304212,-3176.4838062614,-5091.9286052483,-4563.1899854425,-5171.8933489702,-5852.3589867556,-3375.8253565318,-5806.9660259235,6215.0360562091,-4469.4655956735,-6125.9546356501,-5073.7437134205,-6127.0876957516,-3803.053920245,-6280.1863906112,-3888.5730382323,-5569.120000551,-4354.0936360364,-4988.8507951584,-615.8418951471,-2951.1602250061,-5936.6271985581,-4641.8958784726,-5552.9974588958,-4923.9334873565,-4571.0088554822,4489.2408423985,-5996.312380442,-4990.3791194568,-4387.9751675848,7149.3169527466,-378.5877470846,-4987.0945416355,-3729.3310387341,-3963.4828463825,-6442.6319974108,-4547.831066046,-3461.1537187639,-6845.7842602588,-5359.8291437751,-5022.6601087603,5955.7044389494,-5303.5057014157,-3376.0545255307,-4386.0813017935,-5269.1800906578,3647.510264505,-3967.0212469721,-4955.8300977199,-4433.6910003501,-4470.6356247458,-4330.7868725669,-3716.8440732203,-4139.2995508088,-2704.765520176,-6496.5313602917,-792.2220925052,-6358.6945460341,-5448.2197713861,-4357.551179384,-6007.8081985882,-4665.9430760595,-5410.9765924142,-4896.9399190291,-4547.3465894215,-5271.598233938,-4043.87164231,-4430.8720855801,-4450.7214113821,-2419.7430274805,-5995.9079802924,-4691.9300908117,4014.0334564692,-4965.5021608562,-3805.7494580739,-4392.0207582736,-5497.7543522764,-4304.4287630126,-4649.3815892838,-4282.7552393886,-5822.4356767065,-6319.1058422699,-5014.5058988554,-3838.6793880334,-5614.8269456434,-5260.4887760432,-4127.7775116596,-5984.2815403178,-4647.182916572,-4410.0199004344,5669.6292072464,-2722.3809498028,-4389.8853576836,-4733.5618417596,-6195.6249943682,-3222.8067070227,-5705.4325676391,-6358.7184028903,-4585.2348813097,-3660.1655717093,6574.8023711692,-6408.5048861475,-6493.5131849315,-4965.5515221294,-2143.9434959776,-3841.3705070447,-5390.4287621024,-4255.5675660459,-5077.1039034525,-2714.6863852752,-4783.0502071316,-6496.5274657764,-5909.7922910882,4779.9404677386,-6517.8134502515,-4961.1255292978,-5892.7889067617,-4598.6697335822,-4834.6145307906,-5523.8554827998,-5822.5550202157,-4078.2299720432,-3821.231191999,-4627.4181249746,-6497.3410010359,-4560.7129790821,6343.597514049,-4960.2530966484,-4316.7888134329,-3176.7834602943,-5091.8311854873,-4563.5311443792,-5171.1843442789,-5851.4728244053,-3374.9427874002,-5807.5204494097,6215.7559513653,-4469.0889919558,-6126.5310440204,-5073.7169935377,-6126.668326175,-3803.8394463607,-6280.9232261712,-3889.2816299017,-5568.4549536772,-4354.0086376509,-4989.2937697411,-616.0781984945,-2951.4170948334,-5936.8772808628,-4641.8152948592,-5553.2327744131,-4923.5434120175,-4570.1689486809,4489.1341004608,-5732.4680680625,-4989.6839212466,-4388.9766416725,7148.5520105481,-378.0542336088,-4986.340232786,-3728.7088515181,-3963.6371757256,-6276.6935352691,-4548.423576976,-3461.2944374736,-6845.4495059632,-5359.0515185379,-5022.6748253255,5956.0242965446,-5026.9246542651,-3376.4621770132,-4385.2464582549,-5269.0900574102,3399.5145407513,-3965.7693550635,-4956.2108312372,-4434.0801135899,-4470.4308875295,-4331.4081627947,-3716.7365871455,-4139.3771134987,-2705.0986098715,-6496.9241256495,-792.1189863904,-6359.6453551151,-5448.1572017898,-4357.6649974476,-6008.2338121852,-4665.8856435798,-5181.5147786199,-4897.8330619617,-4546.9049410653,-5270.4365210652,-4043.4857739307,-4431.4716564604,-4451.0361325298,-2419.6328018736,-5732.9707744815,-4692.8376210031,4089.5816885633,-4966.4529705598,-3805.8883594033,-4391.3876390797,-5305.8704296747,-4304.0471307312,-4649.3699968893,-4283.9093974797,-5822.5626450092,-6319.1472269284,-5014.3493884864,-3838.9746146913,-5615.4287162074,-5259.2866990509,-4126.9990438024,-5983.820105067,-4647.1053760681,-4411.0595500544,5669.8271473287,-2722.3506129163,-4388.945039751,-4733.7135902338,-6195.9861240327,-3223.5839793585,-5705.665577107,-6363.4354640318,-4589.4188390776,-3665.2692123495,5986.3123125884,-6123.6397242424,-6497.765865612,-4969.6596763641,-2438.0164278909,-3846.8563332447,-5395.7514422579,-4260.7578934386,-5081.8920025054,-3008.3346747799,-4787.2677854988,-6500.9001887366,-5914.8403781598,5055.262555172,-6803.2816670531,-4966.0863582012,-5898.3799153432,-4603.1554292062,-4838.9547618001,-5834.254063198,-5826.9892909911,-4371.5072267409,-3825.3405852,-4632.6362338082,-6501.7141768054,-4565.0603643821,6521.9347070677,-5252.6976003798,-4322.2937979057,-3180.8566204991,-5096.734950559,-4567.6086794054,-5176.7870069195,-5857.9117765551,-3380.1812303553,-5810.7912150421,6210.9828270077,-4475.0016404583,-6130.8112708588,-5078.1034023917,-6130.4511360517,-3807.9982532823,-6286.2027465606,-3893.4288899478,-5573.7714747183,-4358.5170762347,-4993.8080052849,-621.4005856097,-3244.4336776577,-5941.94857575,-4647.3413032723,-5845.1005293849,-4928.3897014155,-4575.4317821892,4473.840064263,-6001.4767206715,-4994.3978051376,-4393.1832890958,7184.3803619225,-671.8257457719,-4991.8054674478,-3732.8995837861,-3969.1430456712,-6446.9407411603,-4553.0017524281,-3465.3631119672,-7138.3670286356,-5365.171681055,-5315.2994809421,5951.0582630112,-5307.6282744135,-3381.1610638885,-4390.4031344905,-5274.1336095431,3643.34251046,-3970.7493592393,-5248.9697280455,-4438.7301959579,-4475.885098204,-4334.9055670871,-3721.3928521917,-4144.3541173946,-2710.2268523496,-6501.9055351094,-796.6417448643,-6363.5904029718,-5157.4041569849,-4361.8295366166,-6013.3129942501,-4670.9286728673,-5416.3165875887,-4901.9788063221,-4552.2537852193,-5275.5460082955,-4048.8659796241,-4435.9902782999,-4740.3000995964,-2425.1780234343,-6000.8891044664,-4698.2656609598,4542.421463776,-4971.9430112503,-3811.5665290998,-4396.8246996578,-5503.5229422226,-4309.4756046597,-4654.3808442083,-4288.2896701329,-5826.6840815453,-6323.6138638328,-5019.4468032813,-3842.9104129203,-5619.9390117478,-5264.6474596897,-4131.456462875,-5989.4749526961,-4939.4060344368,-4415.9155824146,5665.2986310343,-3014.444519245,-4395.0218113059,-4737.3379464367,-6201.2856746323,-3227.5991458026,-5711.4443865595,-6359.0833933305,-4876.5849566472,-3660.4195457148,6285.5788256436,-6118.3000624404,-6493.993960685,-4679.6523851303,-2144.8574086802,-3841.8252661526,-5390.4907905593,-4255.8506932523,-5076.2419830213,-2715.5969982675,-4782.0239197132,-6496.9950710521,-5908.8524089522,5119.9830241769,-6798.9711046329,-4961.4560026394,-5893.8749722052,-4890.548109338,-5294.9273736229,-5828.5618165753,-5822.0233877069,-4078.194317242,-3821.4584007148,-4628.266445538,-6496.7403697148,-4560.3127070516,6527.4648188591,-4959.6443997484,-4317.2339276721,-3133.7545736704,-5091.4782245808,-4564.3765610427,-5171.7144213383,-5852.4682148329,-3375.0871581088,-5806.5359199016,6213.9727855936,-4469.0376379114,-6126.3145607783,-5072.9608936616,-6126.8639328186,-3803.0976640104,-6280.7537523691,-4179.2649133302,-5568.3884511462,-4353.5623482594,-4989.1469741875,-615.7307077823,-2951.2337277373,-5937.1864164013,-4642.1557629758,-5552.6675764737,-4924.2195498494,-4531.4562434332,4778.2156308301,-5996.438839036,-5284.2167226334,-4388.7461491613,7272.9963393635,-377.6552225733,-4697.0720362177,-3728.650163246,-3963.3424116626,-6442.3056765191,-4548.7393148844,-3411.9422290211,-6845.9903144378,-5359.8503559617,-5021.747773136,5955.5874731289,-5303.0837608582,-3376.6653198317,-4386.2958682111,-5269.2944547752,3633.7830554037,-3965.6813197731,-4955.4619225624,-4433.3030945259,-4470.232746503,-4330.5577198617,-3717.4390458151,-4140.4759644029,-2409.4399282787,-6497.877506153,-792.7675036603,-6358.9225587402,-5448.9658407321,-4357.4961653835,-6008.0169677996,-4664.976410009,-5411.3638467365,-4896.9045066411,-5012.511356943,-4991.5296934747,-4001.1271108801,-4430.473466935,-4734.4617126413,-2418.9712012182,-5995.4032416501,-4692.4550387348,4304.0811954178,-4966.5729584578,-3805.9383058795,-4391.9758974174,-5497.9028737832,-4304.4841053576,-4650.2182382506,-4282.8243613781,-5822.5329444755,-6319.5520598501,-5015.1558005339,-3839.3001065522,-5615.2339314983,-5259.3326591625,-4127.817099977,-5983.9113519534,-4646.9394675757,-4703.3034331342,5669.7930437518,-2722.0504752428,-4389.4272713545,-4733.3309146199,-6195.7873116571,-3222.8245032378,-5706.4964788616,-6359.2491167773,-4585.6770309955,-3659.6966760523,6574.7032681397,-6408.6824439133,-6494.1048921404,-4964.6890515904,-2145.1376520451,-3841.3691752681,-5389.5493218812,-4255.6059789482,-5076.3301476186,-2714.7035653654,-4782.7469695426,-6497.4274982383,-5909.2687067265,4780.4258158194,-6518.1419657945,-4961.3190733437,-5893.5325100662,-4598.5190451649,-4835.7826130196,-5523.6279570875,-5822.3554326837,-4077.4145421917,-3822.0071944979,-4627.4414745055,-6496.5963347431,-4559.6640678021,6344.0074423858,-4960.1929352908,-4316.2364161707,-3176.9348384334,-5090.9678243644,-4563.1792606923,-5172.2148526592,-5852.172495377,-3374.8488125528,-5807.5547568254,6215.448156171,-4469.7635238856,-6127.3449047816,-5073.5955623853,-6126.3320144453,-3803.1863304754,-6281.2165179807,-3888.8125412474,-5569.2218978173,-4353.5001002828,-4988.3567775681,-614.2264391393,-2951.4297014922,-5936.8448059171,-4642.1160624537,-5552.7121587403,-4923.4548618222,-4570.8763247652,4489.0588484468,-5995.2610048867,-4989.4761589118,-4388.6367525723,7148.8254794751,-378.5033045939,-4987.4433815062,-3728.7842896999,-3963.6013887579,-6277.0166426192,-4547.7316174271,-3460.3388780843,-6846.6309474841,-5359.6152541743,-5021.7771509332,5955.8889485511,-5026.8853743315,-3376.9391894393,-4385.7373809557,-5269.9932968034,3400.4369334874,-3966.5877493258,-4955.8560052764,-4433.6302882636,-4471.2712097681,-4331.0904081488,-3717.7242074313,-4139.6602716463,-2704.7314886755,-6497.341203709,-791.6734763602,-6359.4395428851,-5447.7555388186,-4357.9907458212,-6007.3629731282,-4665.0245322231,-5411.8417755378,-4897.2256816642,-4547.6481790543,-5270.8597153762,-4043.3656052327,-4430.7069973361,-4450.7445743466,-2419.1236166803,-5995.3176966104,-4692.7155382032,4089.0076702685,-4966.6414454131,-3806.0922864921,-4391.8909675452,-5306.2994095063,-4303.5965450861,-4649.5632746798,-4282.7459505836,-5822.8513835648,-6318.826272496,-5014.6077008455,-3838.6061415723,-5614.7294326757,-5259.2852314916,-4127.779953079,-5983.4029365945,-4646.9685329291,-4410.798098395,5669.0164028628,-2721.7621360922,-4388.9131273655,-4732.5747519237,-6195.4863714651,-3223.9609065886,-5706.5282368368,-6887.5309854397,-5114.5291747989,-4190.2683535904,6569.196368888,-6648.0366093274,-7023.5994240093,-5495.0266470239,-2674.3828472085,-4370.6333996914,-5919.6682530291,-4784.0939857261,-5606.8226692333,-3244.0769639108,-5312.5235760068,-7027.2262403217,-6438.5582565992,4779.5525415731,-7328.0644425613,-5490.0593195088,-6423.2473853188,-5128.9003003093,-5364.4180420871,-6357.7916566159,-6351.3098313073,-4176.610662353,-4061.0082901167,-4916.9716463802,-7025.8342874163,-5090.2726930966,5997.6168875436,-5199.8413932151,-4846.688669289,-3706.3243117967,-5621.3199579512,-5093.2814113787,-5701.4097693816,-6105.1185194216,-3571.0585133701,-6336.2743560848,6503.7269634293,-4759.762000062,-6655.8211849457,-5602.8256948162,-6656.4925571275,-4332.5012264505,-6810.0915685718,-4708.6642691678,-6097.8568852062,-4883.3717014715,-5519.1091656826,-1145.1806482547,-3480.2526938958,-6466.3549860941,-5170.6564436859,-6081.8228159294,-5453.5252724137,-5238.8138294101,4477.2551311608,-6525.5408589821,-5519.7049963415,-4917.5417174719,6908.630656291,-908.0608757576,-5515.6153130959,-4257.3478523083,-4492.382179885,-6971.4283250222,-5078.2055126177,-3989.472148618,-7783.1061293583,-5888.3714256033,-5263.1507987064,5426.0286046983,-5832.4614303002,-3905.9763510926,-4915.0647497424,-5798.6027064226,3118.0488201709,-4495.4316356435,-5484.725534467,-4725.5832493183,-4999.557535365,-4860.6988375769,-4246.4656558937,-4668.9575618426,-3233.9803610767,-7026.3759948302,-1321.0744933445,-6888.3616744364,-5977.0443309469,-4887.6590510612,-6537.5551663865,-5195.108925201,-5941.4956490084,-5426.9145830429,-5076.3067619223,-5800.8349552748,-4573.0964696735,-4960.1701990992,-4980.1578427083,-2948.8988276015,-6524.509348142,-5221.9362519034,4302.7165754847,-5495.5322644602,-4385.282760901,-4921.2894729898,-6027.171864105,-4833.2317265151,-4868.5732377322,-5119.9659971895,-6351.9745816679,-6849.0182248355,-5543.8529053885,-4078.3624866575,-5862.3400613145,-5789.0166448251,-4656.0979530509,-6513.218906709,-5175.3864272235,-4940.0697911892,5139.801213722,-3251.916336404,-4918.1815480257,-5263.1523560065,-6724.9354868746,-3753.2679132901,-6236.0505689657,-6753.8660549188,-4776.7051851038,-3955.7648756331,5902.4275944309,-6311.0342998328,-6789.2618364015,-5157.4980060316,-2539.7555585733,-4033.1065340931,-5785.5238754162,-4650.8605133731,-5472.7256611309,-2945.0436539791,-5012.8236442929,-6792.9620503772,-6304.6993212923,4073.9772164161,-7093.3573463041,-5357.0865473125,-6124.0837391093,-4791.5782804343,-5130.4623377839,-6058.7297625396,-6117.1579919537,-4473.5323920284,-4012.7699247205,-4818.8190916941,-6792.1221715198,-4751.4818307754,6131.9964649243,-5066.1714604807,-4546.5174495346,-3369.1297502046,-5321.9546618344,-4858.6121626566,-5363.3373264723,-5971.6145471658,-3771.0714353897,-5998.791268435,5598.5927960805,-4699.4752910791,-6421.9131671823,-5468.5855357928,-6422.6926677451,-4098.9115191613,-6676.2202961611,-4119.1109277656,-5963.9050041128,-4649.4663625295,-5384.0442131557,-1011.7249764266,-3346.7732623311,-6129.1767988949,-5037.8160708344,-5947.4270872177,-5318.6492469051,-4966.0388106389,3494.0637022942,-6391.9008637714,-5181.314732534,-4783.7128191981,6203.2311897706,-607.8448002836,-5381.8731099597,-3920.77556426,-4359.1621161346,-6634.7224550309,-4943.423603658,-3856.2919744399,-7075.3770455338,-5755.0050263948,-5128.691845196,5660.1710768925,-5495.1351697014,-3607.0864757168,-4781.6742040081,-5565.0831146718,3351.5003790646,-4262.1908589252,-5350.7082848612,-4425.0579077009,-4866.0794754943,-4627.0530793962,-3908.9771996206,-4435.3645886627,-3100.7603120439,-6791.6260193482,-983.4438174186,-6589.0568539039,-5844.0606932917,-4652.4337879666,-6403.5194166715,-4895.5922413942,-5807.714563253,-5089.0284053337,-4843.6943438472,-5566.5821782732,-4438.4919928206,-4622.6410154873,-4680.8914822977,-2814.316435416,-6390.7686008926,-4922.187412482,2919.6690358431,-5195.8777741514,-4251.6491496572,-4787.84929876,-5893.5993679567,-4699.2381396203,-5045.8933778459,-4678.7551800544,-6117.8362019883,-6511.6477208719,-5309.5510700721,-4134.0710458259,-5563.4400011086,-5654.8953957774,-4422.5834107069,-6379.4740988406,-5042.060662095,-4806.077677991,5373.7857492825,-2952.4277356108,-4619.1717218271,-5029.4068931738,-6590.533081355,-3416.0456906459,-5936.2270436232,-6358.3798476457,-4585.7207054799,-3366.4842096969,6569.4538474689,-5821.9481390897,-6494.1130580447,-4389.7233169598,-1847.4247261954,-3841.2750185924,-5389.6024056232,-4254.9791093152,-4793.8655465936,-2423.5406312842,-4781.9464482878,-6268.3185081309,-5909.546897235,5118.9273298126,-6463.5220211838,-4960.8888029248,-5986.7973613595,-4598.7848656114,-4835.4971265431,-5829.0648331507,-5550.3309730054,-3768.7861980843,-3821.74511875,-4338.1600328596,-6267.6595223252,-4559.858563222,6526.7546498941,-4960.0328978861,-4317.0192237902,-3133.0646693669,-5091.2340268126,-4564.2257079523,-5172.1685311297,-5575.0724474103,-3084.369959579,-5806.8960094062,6504.4700809467,-4469.4834635891,-6126.0488149041,-5073.7311688704,-6127.2577893024,-3503.8704132878,-6280.2755667752,-3889.3269414614,-5569.0565484992,-4062.6479177287,-4989.2757155786,-328.7703195709,-2654.1503455098,-5937.4532764123,-4641.4228382053,-5269.7118630752,-4924.0242043698,-4531.6653731732,5056.0334862595,-5691.0063174139,-4990.0272636928,-4098.6165275519,7152.1878926351,-377.8083008298,-4407.1334944302,-3728.4765822205,-3963.0474154395,-6145.2950805486,-4243.8699408941,-3411.0545854819,-6845.689741636,-5054.1603003675,-5021.8521801001,5954.7497389673,-5007.5233391122,-3375.5876338901,-4385.2654301757,-5268.99012635,3634.2207651012,-3966.8655053177,-4666.5935081244,-4434.5212826786,-4470.5549944899,-4040.3057304026,-3716.5700292657,-4139.3390448774,-1968.8336805073,-6267.4697500724,-792.4214309413,-6359.1713949737,-5447.9095268475,-4357.6645782219,-6007.3397322374,-4375.6165260742,-5100.9797740182,-4561.9942703269,-4547.8041943696,-4705.4018260974,-4000.7465615758,-4141.2203934872,-4451.4892087395,-2419.7116627004,-5690.7484288233,-4693.1664974182,4363.2810028901,-4966.5665797282,-3805.1888722075,-4392.0125322487,-5498.0143795847,-4303.8919637585,-4344.3012980834,-4283.6429362751,-5550.6194591032,-6320.019357263,-4729.349341889,-3839.1117676507,-5332.8861088066,-5259.2681625686,-4126.9921790008,-5983.2501389972,-4356.8665372153,-4410.3615620619,5669.6530395867,-2425.185355295,-4099.3497517714,-4443.6207966579,-5944.1387814914,-3224.0974842974,-5706.1968423744,-1419.5483952933,-2167.0728216212,3505.3166975298,-4456.9396136444,1913.4927680473,-48.1673252126,-1195.518404774,3567.293199701,-1881.262875307,-1209.3551791276,-1673.0065866588,-1040.7239460395,4022.5177904551,-2412.6796081198,-72.1227253347,1254.8176784033,-2847.9300471328,1677.1935826119,-1391.3175480196,1455.1693459614,-2149.2753775017,-2124.553062476,-207.0525640636,-1539.1489185896,4560.7636348386,-2193.5370751729,-1157.9815493102,-72.9618690229,-2188.8346649221,821.7779734003,-570.3691590618,-1852.7155773397,-3831.4536405939,-2291.8595718341,-2184.7448049518,-1214.0291994748,-1438.2825503627,4879.0656413461,-1556.5856739858,-4052.6664983467,-2730.0640645513,-808.3545268919,-1483.0018403046,-807.4245441213,4272.4098475829,847.5654869632,-1988.261695184,-664.4518641472,-1485.5876404847,-1128.0820444094,4210.8753179653,4537.8283355566,-320.7433629701,-217.0472058951,-1488.8028382282,-1547.0714731287,-2869.1727929977,-3351.2510096008,1808.1014370989,-1444.227339939,-1771.6454922732,-5912.3704878071,3226.9419303437,-1451.0307721259,-1485.0561651154,-1335.1418805545,2292.6221158544,474.7782316622,-2853.2632096756,1211.4285044778,1412.7849677165,-1115.8264558257,900.8301886954,1607.4046330254,-1672.3924442439,-1752.5289529303,-2076.7007977364,3170.2585794067,-1660.8002076835,-1050.0625992812,-2456.2030202063,-1684.2219550336,-1466.8115053701,-1282.7345106981,-1567.5448550139,4564.8516482386,-385.8284917969,2883.2902099375,206.4262093602,-75.4816535436,-1744.2507369944,564.4598247641,-1785.0919306428,4558.6181331943,801.3559778226,-2124.8021901614,-443.5317092829,-2892.8580238501,-1566.2313069262,-2429.3085888485,-2466.2157161345,1808.2639911042,-569.1162427899,-4551.7035982007,-784.1851176783,-3103.2884318735,-1178.9637983302,-2394.1258100517,-1321.6385279082,375.154876648,-1325.0661876048,-1542.2933900846,-599.2195166208,-1565.8820300549,-2144.6566062146,-1373.7598106734,-1122.2888361881,-1236.61364275,537.5029388224,-1049.8732448039,-1004.6411747477,574.6094987735,3734.7944423672,-1760.9480767116,-1203.6340096049,713.0778591706,-1605.8955942381,-1209.8969088399,-1357.8590553819,-2396.7840387209,3567.0398895312,-5152.5143898698,2025.7515201537,14.4484974157,-1766.7835188943,3628.4546669713,-2115.6746437546,-914.5445197182,-1611.8980627878,-977.8588311589,3795.4226741623,-2351.5441566083,-10.191368813,1316.9549559859,-3570.7366061164,1739.9264920496,-1302.7784218892,1518.3419285121,-2379.7182083951,-2062.4407528847,-145.1122873504,-1476.986125343,4623.4381366949,-2130.9037989021,-806.1276683585,-11.3543439862,-2127.1739571372,883.3827388573,-508.8612420986,-1790.0982282055,-3768.8192313551,-2229.0947554746,-2123.4025880067,-1494.3583378894,-1376.67789288,4655.9810630947,-1494.3349317003,-4746.966647082,-2668.6336111404,-745.5623263941,-1764.8193797732,-745.1937421153,4333.1444821542,1077.7160369122,-1926.9977822231,-602.918276368,-1423.1418478174,-1066.0128031658,4273.0317326575,4599.9338172456,-258.4666628781,-598.4783994568,-1425.4591608222,-1485.2723633576,-2806.8580332934,-3907.3506097625,1869.4314043946,-1691.1755802611,-1708.8046575117,-6468.2083423395,3288.9558674126,-1388.9609429713,-1731.6868237665,-1272.370793636,2355.234083196,537.6625090048,-2791.2494973386,1274.5146818727,1475.5015923311,-1053.6433747859,963.1408959733,1669.8284631137,-1611.1897916069,-1690.1879026036,-2014.3687880094,3231.5222958276,-1598.9397720758,-988.1782583463,-2394.2937461239,-1621.9756763006,-1713.4415184434,-1221.611316557,-1813.3922057025,4352.3314081497,-323.548816057,2945.3946475198,268.9088294835,-13.9223968743,-1681.2413261359,627.0199918032,-1722.4492604444,4620.7117593973,863.1685315809,-2062.9154011953,-659.9612979218,-2831.6001718665,-1812.6454727291,-2656.3067358001,-2405.0344732764,1869.4583986502,-953.805246756,-5401.6135300412,-1083.6276814671,-3040.346531011,-1116.7545133306,-2331.867134083,-1259.1492748055,436.8731498048,-1262.2917532214,-1479.9890048931,-537.6813624018,-2108.9575282704,-2081.4407616667,-1312.0031969479,-1060.5020504595,-1516.6808132729,909.7881644121,-988.5201824329,-1286.9413355028,636.7480942159,3797.3003621852,-1698.3277094035,-1481.8066267713,775.0751921764,-1543.3620767896,-1148.5853587609,-1713.5519423943,-2460.1618893666,3126.0466453039,-5026.2992469268,1620.8549996422,-341.2668219235,-1489.9507801367,3401.0550646167,-2174.7329953725,-1503.2242790444,-1966.97166607,-1333.5908679495,3856.6048085659,-2707.4215011691,-366.6524778023,961.6395839529,-3345.0041659397,1383.9359310463,-1684.5863705058,1161.7059396544,-2443.3952145042,-2418.8182414116,-500.987268317,-1833.3110086254,4395.3949655685,-2487.1390077913,-1451.7642512867,-366.7508008726,-2482.3070324951,427.183791796,-864.7328283087,-2147.1095229311,-4202.4293226081,-2584.5218310891,-2479.5166304126,-1507.0799874546,-1732.1247757497,4428.5095552173,-1851.5331693463,-4622.1185187441,-3023.8211057276,-1100.8976758131,-2220.2287105754,-1101.3955276225,3910.8394733552,721.4329177931,-2282.8390029797,-959.459357423,-1779.6437781139,-1422.8616847055,4017.9156284183,4371.0188116835,-614.3607416781,-954.1874158291,-1782.1541997959,-1840.4508391066,-3162.8219049702,-3759.9476077375,1514.534993216,-1738.8693875242,-2065.6218817238,-6343.242819026,3061.897554217,-1744.6348502174,-1779.2855985826,-1627.6783997646,1999.2766580502,180.7796002733,-3147.5734740143,818.5542781777,1118.5129447923,-1409.1149478048,506.2096618216,1314.0821290739,-1966.5362654276,-2046.3686893711,-2370.1441696311,2775.9724635862,-1953.8174876292,-1343.7851391623,-2750.0425981728,-1977.9736221034,-1760.3862943337,-1576.9362424473,-1860.7760829946,4398.434940102,-679.4789867178,2718.3204584911,-87.6528739039,-469.2659754918,-2038.0063402674,271.3020029748,-2079.0309264385,4276.8296733072,507.3747246751,-2418.2172637669,-737.8062867739,-3187.6527795926,-1861.1642206842,-2722.8547124111,-2760.6903842437,1513.8703552574,-863.4517034671,-4978.0344784921,-1076.8731146958,-3395.9681474293,-1471.4882538679,-2688.5407846931,-1614.8001860945,81.4623619943,-1617.7752780517,-1835.5649905162,-893.68098169,-2168.2746275509,-2438.0562590711,-1666.8364319512,-1415.6549095438,-1530.1544848325
   552.8409807449,-1344.0676962777,-1297.8383571455,180.5357826263,3568.8937076873,-2054.4020891452,-1836.4171104777,418.685983738,-1899.1029023732,-1504.5854118561,-6069.0456262098,-4295.2790554939,-3371.1611860026,7148.3812625108,-6118.8364379671,-6204.5024636986,-4389.3295917013,-1854.7197248468,-3551.5936819755,-5099.9671350432,-3965.464311141,-4786.9090462433,-2425.7084420133,-4492.5462604635,-6207.0961643786,-5619.9417456267,5409.4146576366,-6508.2136328296,-4671.4176325604,-5603.5487823052,-4308.7700738489,-4544.7998829789,-5539.2175608216,-5531.9405359715,-3787.9581351273,-3531.4276677545,-4337.430895035,-6207.3478264663,-4269.7574110098,6817.4595064945,-4669.8781719502,-4026.9166002725,-2842.9857811842,-4801.0816107378,-4274.530761184,-4881.4553167065,-5561.6713441842,-3085.7903481127,-5517.2267727683,6794.2948094673,-4179.0969796217,-5837.1968637494,-4783.9823861024,-5837.4373125732,-3514.1038203833,-5990.9182187791,-3599.437599626,-5278.8251228377,-4063.8488976804,-4699.4568272111,-325.4547238116,-2661.7026392841,-5648.0539024555,-4351.2603278569,-5262.7391940765,-4633.6850088234,-4242.2440417805,5068.027172944,-5705.9531832977,-4699.7537669398,-4098.1984943645,7728.6402919244,-88.2195153574,-4407.5067286529,-3439.4634953828,-3674.325661001,-6153.0083835867,-4257.7837782655,-3122.0755950374,-6555.7114843847,-5069.9572999454,-4733.0544661292,6245.5872563847,-5013.1469398284,-3086.9964178638,-4096.0442497377,-4979.8680108882,3924.1799249382,-3676.4541213002,-4666.2760126422,-4144.4061937056,-4180.6320059455,-4041.7548593781,-3426.5745392024,-3849.8886886737,-2415.3170630517,-6207.7666093688,-501.8903490415,-6069.4209181298,-5158.7139938988,-4067.5169604698,-5718.1071082305,-4375.7726794704,-5121.7577370518,-4607.7634964415,-4258.321472079,-4701.0751083888,-3711.5707093835,-4141.2569744904,-4444.9244181702,-2129.8948670507,-5706.6395312746,-4402.7044377738,4593.4891361239,-4675.9791042319,-3516.4681785007,-4101.9939601093,-5208.46802638,-4014.2534787461,-4360.0670853427,-3994.314171463,-5532.0200903012,-6029.0124400427,-4725.1545095611,-3549.4478338988,-5325.1123147197,-4969.9098011575,-3838.0272303065,-5694.4330649562,-4357.4433150945,-4121.0744531005,5959.2397373097,-2432.5802856756,-4099.6597743044,-4443.335471941,-5905.8580554931,-2933.760280765,-5416.3244299702,-6359.2060010237,-4585.8632866887,-3366.8923553172,6569.3235305151,-6119.2176894605,-6493.6607857474,-4679.5837695395,-1847.5195228412,-3841.961907531,-5390.2913769342,-4255.6300068922,-5077.3949077208,-2715.3149781858,-4782.48471959,-6497.7409630345,-5908.7270529571,5119.5865565225,-6798.4446274511,-4961.1965637312,-5893.2260530287,-4598.7280972188,-4834.7552494356,-5829.2000195324,-5821.8079967249,-4077.5820245364,-3821.2986264935,-4627.2333111775,-6497.5989684191,-4560.0851286656,6527.8604482658,-4959.7099433982,-4316.5469439553,-3132.9786386069,-5091.8128715644,-4564.3810288453,-5171.6002734846,-5851.2755633263,-3375.2139625277,-5807.5002870426,6505.0850264517,-4468.6770169256,-6126.374730949,-5073.39702034,-6126.2099267015,-3802.7801473503,-6280.6313440853,-3889.0767377864,-5569.2264644391,-4353.0038461406,-4989.2782388561,-329.0992734046,-2653.0671636349,-5936.9853054737,-4641.5762554253,-5552.2886610087,-4923.0497181877,-4531.1305283321,4778.4036967062,-5995.6444207544,-4990.5748257057,-4388.5027224369,7151.3503898219,-377.6544339496,-4697.3344107713,-3728.5073696764,-3964.1776153006,-6145.4849604413,-4547.9684745844,-3410.9519451115,-6846.3104797469,-5359.1940652548,-5022.9652919471,5955.3391516007,-5008.1535570047,-3375.7816760188,-4385.3680346232,-5269.7166037227,3634.0789931856,-3966.6745820488,-4955.9387511405,-4433.3647980742,-4470.2834396603,-4331.1089349991,-3717.2331740114,-4139.7458344229,-1968.6720302924,-6497.3523728554,-791.5948527986,-6359.1923976774,-5448.1341863271,-4357.1578082366,-6007.7001976759,-4664.8197367171,-5411.4532028047,-4898.2135161326,-4547.0268969851,-4991.0133026768,-4000.9068731535,-4430.917535434,-4735.7490459597,-2419.6452685722,-5995.5915685475,-4692.5100112098,4303.9651660983,-4966.743906105,-3806.2318275977,-4392.0531185348,-5498.8700137529,-4304.6531431893,-4649.441059187,-4283.3566303496,-5821.7876548936,-6318.8745928927,-5014.5207710321,-3839.6327056074,-5614.8101420085,-5260.4088181406,-4127.3582159745,-5984.0704063348,-4646.677757664,-4411.2821405279,5669.8470375961,-2722.6056029541,-4389.172929296,-4732.727854999,-6196.0819198949,-3223.591656052,-5705.7045953951,-6357.9773767607,-4585.6165639268,-3660.6791684859,6581.3673906657,-6408.1428810079,-6494.1990138001,-4679.2244660655,-1847.1993777088,-3841.7877149627,-5393.8926134808,-3956.8732019892,-5076.7543774766,-2715.201989337,-4783.0884581871,-6496.6466919325,-5909.3931344815,4829.4009091717,-6798.39289561,-4960.7823611079,-5893.7076516645,-4599.2704119177,-4835.7071350068,-5555.0791170931,-5821.6948317889,-4078.1668953741,-3822.1149936887,-4627.5866127292,-6496.6197183828,-4560.0697411219,6527.3839117468,-4959.6709211956,-4316.2456065635,-3133.3046876737,-5090.6202811583,-4563.6102791559,-5171.8314686173,-5852.6578717477,-3375.6706081086,-5806.9264557908,6215.0218648804,-4469.2065587249,-6127.0861037559,-5073.1185308879,-6126.8722023614,-3803.7614272663,-6280.3084688815,-3888.5975778731,-5569.1192497182,-4353.503133377,-4989.5120047301,-328.8579507944,-2653.0405932991,-5937.9727898333,-4641.9095028653,-5552.6974398882,-4923.8683367976,-4531.4010267456,4488.5899437796,-5995.7445014216,-4989.2095052042,-4388.9591145232,7273.0883510802,-378.5044387017,-4697.0125488978,-3728.7893478273,-3665.7045012801,-6442.3883746536,-4548.1805715446,-3410.8729094776,-6845.8926823548,-5360.0960947268,-5022.1079471539,5956.0741197477,-5007.3030115201,-3085.5534138524,-4386.345188781,-5270.0235066619,3633.7483290594,-3966.530918568,-4955.1684320502,-4434.2117742564,-4470.9828714404,-4330.9348066942,-3424.8734073921,-4140.4902576505,-2408.1142227851,-6496.8314223028,-792.3542136059,-6359.150146003,-5448.0294524314,-4358.2133695023,-6008.124409746,-4665.5560061845,-5411.0461433319,-4897.8234879653,-4547.4511151555,-4991.4456453762,-4001.4952618801,-4430.5113000013,-4444.3404818151,-2419.886875789,-5995.235557541,-4693.0142521495,4304.017350541,-4966.9486662779,-3805.954105486,-4391.2562464553,-5497.5041587472,-3991.3408957525,-4650.2989760405,-4284.1563793697,-5823.0107039563,-6319.8237006731,-5014.4998454938,-3839.1718689402,-5615.3198451046,-5259.3117624521,-4127.5308983031,-5983.9542948628,-4646.9594805823,-4410.9028398536,5668.727500806,-2722.1313727398,-4389.4776740464,-4733.4971472337,-6196.0441107357,-3223.5069744706,-5391.1627529596,-6358.1821654823,-4877.7040643095,-3660.9604150859,6285.1978909024,-6118.6077439002,-6494.6990329416,-4678.8097207262,-2144.6972922981,-3841.9608969453,-5390.043888843,-4255.1507107782,-5076.2862496848,-2715.4622262101,-4781.8486443461,-6497.126292746,-5910.0976305352,5119.082731023,-6799.1618230053,-4961.652140393,-5892.7562751675,-4890.334311246,-5295.1893024338,-5829.0631238541,-5822.2094635921,-4078.2712464978,-3821.0858564569,-4627.0168803503,-6497.2840786497,-4560.4113611434,6527.6487977493,-4960.3185302238,-4316.3443884215,-3132.8429648367,-5091.7135686304,-4563.9686685106,-5171.1609141722,-5851.9252398395,-3375.8078401723,-5807.0251945588,6214.0949472661,-4469.2248485227,-6126.6234740044,-5073.8676841986,-6126.7486543981,-3803.927485148,-6281.3078022508,-4178.4407358612,-5568.2944470236,-4353.1643607926,-4989.2706835064,-615.5627580862,-2950.5132571856,-5937.9217286453,-4641.217165998,-5553.100773286,-4924.1347683161,-4531.6488023697,4778.7614613589,-5995.1008337343,-5284.4992377245,-4388.1704327992,7272.2438680704,-378.7152450281,-4697.3270058532,-3729.1108559315,-3962.8390834737,-6146.5447526248,-4548.6945654316,-3410.8683114696,-6846.3178710501,-5358.9419750225,-5021.9450942961,5955.3944105179,-5303.6509744076,-3375.7537838087,-4385.4725009772,-5269.7598086217,3633.9441651009,-3966.9895022972,-4955.6590563477,-4434.4623596254,-4470.1217374833,-4330.969855217,-3716.6333630718,-4140.2870064081,-2409.4901825206,-6497.7842513288,-792.6943695032,-6358.9111118645,-5448.5046915811,-4357.9644485226,-6007.7214458318,-4665.6720068129,-5411.8808962172,-4897.2316077262,-5011.7894896948,-4990.6464446655,-4001.2265110008,-4431.0376065123,-4734.3600297712,-2419.2460087805,-5995.1595078135,-4691.9970323449,4304.6280280041,-4966.4157260931,-3806.0930208666,-4391.506174844,-5497.5013502435,-4304.3340692844,-4650.039866352,-4283.9413860641,-5822.3638539131,-6320.0615532812,-5015.3470241824,-3839.1354245452,-5614.2808575937,-5259.9091223598,-4127.2783444025,-5983.3456947211,-4646.1777364663,-4703.1125210848,5668.9582497913,-2722.1759847342,-4389.6484502271,-4733.3124457496,-6196.0982929208,-3223.5105559396,-5705.2461946251,4461.3654657365,3421.8413925791,2559.9568586122,-6979.3079914083,5012.9720628839,5274.5381360661,3827.0964381077,357.5515880726,3552.8750073558,4563.5154295378,4264.8350640992,3023.2411386937,1280.3742114864,3629.7658131777,4848.1105417448,3872.2592091764,-5839.9408697335,4732.4882025206,3914.3149237636,4194.7547723691,3439.2941324867,3888.0247511449,5611.0718122159,4051.1938519493,1777.1346848165,3820.2572934697,4138.3855781868,4848.1995079514,3402.440945408,-3939.3889491078,4924.7855908494,4027.9598521691,2569.842830554,3174.864531701,3695.0591015511,4325.1683246583,4443.1772366672,1829.9115769549,4323.9276041322,-6436.7742497099,3311.7096475669,4790.0630215238,4213.4571638857,4791.0889646384,2688.1421436073,4243.6835636812,3892.2710716755,5505.9290949849,3806.2867615931,4409.1526885896,325.896379916,2083.3436915559,4705.3919571738,4411.9315590758,4682.5619602398,4334.6144873281,3178.1449640658,-6518.7614843208,4967.341614522,4127.5528305473,4399.7577291745,-8846.6597708859,87.796272675,4718.8549692062,3447.6563625887,4604.5432949063,5386.8670401269,3897.8799222369,2656.5404387606,7252.4527710208,4834.4967615605,4503.0973090634,-6070.278668129,4154.3352910098,4266.1146034966,3841.0718742002,3225.3612086662,-1437.2817960974,3699.8066672264,4442.2121459149,3309.0207393826,4197.8240057542,3465.5943595198,4655.282885308,3565.5966284763,1655.5868243908,4535.7446410791,502.7168413678,3439.2985604234,5674.8622853408,3773.5603192448,3958.4845672836,4385.5225998305,4396.1375748757,4222.496003986,3887.5171083035,5075.7628081355,2327.3433527052,3565.4213690143,3323.6078603219,3286.1360357456,4966.6917908471,4793.257490462,-7846.6836645749,4102.9186037862,2952.9683290119,4467.6774117745,3068.9779497819,4617.256268844,3996.7650949096,4614.2645857065,4048.9820114515,4716.8190356825,3270.1318662893,3869.3251633317,4508.4585608934,4761.6695559254,4154.1029727117,3954.5201248907,4441.3088768593,4457.3007081475,-5795.1681600141,828.5675868776,4410.2012241853,3898.9059258166,4524.9057335217,4126.1870237082,4563.6388612427,-1523.611042257,-2562.4927354682,3401.8331171031,-4976.9272022647,1569.3205093848,-151.7720808196,-1932.811172837,3462.5871140716,-2281.888922706,-1312.2473476682,-1777.5306066702,-1143.6579178774,3629.8695861728,-2516.428915705,-176.559120134,1151.4635569582,-3445.111403137,1574.1799598331,-1469.7814545427,1352.4789949966,-2546.0356752732,-2228.3081877791,-310.048090538,-1644.0036872166,4457.2184664058,-2297.113271461,-971.7109243048,-176.6973649118,-2291.8443523486,717.52815549,-674.2454123876,-1956.672121591,-3934.8378264019,-2394.3834766199,-2288.8555129146,-1660.1361903735,-1542.9267147726,4490.8506030063,-1660.8197611601,-4622.1444279496,-2833.4813556846,-910.7660800829,-1930.8140614648,-911.9405624911,4167.5134416106,911.7384049306,-2091.5839956791,-768.6021019021,-1589.8972639158,-1233.2163032341,4106.658009233,4433.348613702,-424.4988090249,-764.251221143,-1591.3284778357,-1650.9776331163,-2972.8022531281,-3783.2513148552,1703.998955371,-1857.6011022785,-1874.450684872,-6343.9982662448,3123.7055293473,-1554.5440998085,-1897.7488024311,-1437.6740769063,2189.6034089181,371.604656303,-2957.9819412478,1107.9332264375,1308.7736716591,-1220.2189166611,797.0017323355,1503.9179973679,-1776.3985392291,-1856.1812529662,-2180.103670562,3066.1188576856,-1765.0014323531,-1154.2864446131,-2560.688311943,-1787.042639473,-1879.3451476137,-1387.2733195087,-1979.5357039783,4186.9415587561,-489.8134803094,2779.847822636,102.3296880905,-179.7033495098,-1847.2523478968,460.6448240017,-1889.0843975316,4455.5176186109,697.6721860631,-2228.3885237062,-825.4498751338,-2997.1249258775,-1978.7690892283,-2822.4138049503,-2571.2392195503,1704.0422976222,-1118.6286990574,-5277.4349771178,-1249.5875299347,-3206.9832476482,-1282.7236009992,-2498.1003322635,-1425.2995061926,270.5904720542,-1427.934176184,-1645.8779338752,-702.8951913323,-2274.5537772707,-2248.17284216,-1477.775598351,-1225.0975374503,-1682.4591200959,742.9561281473,-1154.755765683,-1452.0074725979,470.9849491661,3631.385989627,-1864.4751566923,-1646.9345930264,609.6583213102,-1709.3137068109,-1313.3832842772,-6069.0089024767,-4295.6058434526,-3370.4518396241,7148.4236290089,-6119.212397467,-6204.4087800176,-4388.722875526,-1855.180371172,-3551.7531115356,-5099.8195363679,-3965.4749964047,-4786.3294141353,-2425.1171681336,-4493.3686699232,-6207.221016282,-5620.0768346888,5409.5787239235,-6508.7158298713,-4671.0248584787,-5603.554754314,-4309.4224323033,-4545.3383308511,-5537.9945649046,-5532.0634235707,-3787.805740659,-3531.8882432874,-4337.2361292743,-6207.4345638535,-4269.9936575672,6817.2010501666,-4669.1445936437,-4026.6511272631,-2843.9290312999,-4801.2801106011,-4274.5075825397,-4882.1202868085,-5562.700270973,-3085.196731288,-5517.0025714649,6793.8324056668,-4179.3368150675,-5836.2569110949,-4783.7560660753,-5837.2841691693,-3513.237007955,-5991.1321060819,-3599.2290445306,-5278.6505045171,-4063.2327625292,-4698.677713163,-325.9556156269,-2660.7061667769,-5647.3833674736,-4352.2408613613,-5262.8677649649,-4633.4624015502,-4242.1907754019,5068.269589594,-5705.4315999459,-4700.2351450245,-4098.6906250044,7727.6191063937,-88.479042575,-4406.9799031794,-3438.4633836645,-3673.8529259242,-6442.1538949044,-4258.9606972183,-3121.9606935114,-6555.7509892203,-5070.0944195383,-4732.7756711033,6244.8947994022,-5013.3740148669,-3086.4453997572,-4095.2814985742,-4980.3820944871,3923.6218237743,-3677.2134240241,-4665.2619065928,-4143.6463898751,-4180.1964765838,-4040.603051626,-3427.5148695664,-3849.8478365323,-2415.7765786014,-6206.9265895094,-502.9673217008,-6068.9141907568,-5159.1439800029,-4068.0697070432,-5718.5321146936,-4375.2976682664,-5121.848987265,-4607.1657707089,-4258.3253690503,-4701.3599248906,-3711.6825693115,-4141.3038410485,-4444.8011194367,-2129.0816558092,-5706.1211617145,-4402.0028242949,4593.9568985372,-4676.9531703593,-3516.2965839289,-4102.4827153262,-5208.1540393559,-4014.1614669984,-4360.1178285713,-3993.1997961492,-5533.2946281696,-6029.989634623,-4725.2104507486,-3549.147995524,-5325.4068192148,-4970.2939666444,-3837.3362871,-5693.4463285583,-4356.1579872246,-4120.5523921343,5958.8879400977,-2431.4923984977,-4099.5647983731,-4443.0558877363,-5905.9781422013,-2933.8694894113,-5416.5049237612,-6358.8393075621,-4585.2204113038,-3660.4539653024,6858.9474181474,-6119.5062238483,-6493.6657100771,-4679.2718075049,-2143.7716109728,-3841.9751707424,-5389.5861577835,-4255.3115295982,-5077.1876035326,-2714.5715858661,-4781.8108042054,-6497.8487809461,-5908.7488411756,5118.9820860456,-6799.0226754864,-4961.0446958464,-5893.5019121134,-4599.1644449407,-4835.7758604152,-5828.4456495076,-5822.5980969331,-4077.9453025157,-3822.213053566,-4627.394317108,-6497.3281521379,-4560.5037210475,6527.4164353849,-4959.7623598846,-4316.5836659162,-3133.6808554317,-5090.7173795932,-4563.9694296212,-5171.8628641368,-5852.0558092338,-3375.061182667,-5807.649976264,6503.9816739562,-4469.202767065,-6127.0722228668,-5072.6181564202,-6126.6255464863,-3803.1132297565,-6280.6498948325,-3887.9438705137,-5569.0335121435,-4353.080218452,-4988.7746924004,-615.7573647665,-2951.7916195208,-5937.4834765354,-4642.3136958377,-5552.4333987684,-4923.0906617607,-4531.7757670635,4778.5691352845,-6455.8898766869,-4989.2235668077,-4387.8554321267,7438.4256682777,-377.4465042782,-4696.6822823429,-3728.6546946544,-3963.0559863126,-6441.8848676936,-4898.2120461181,-3411.1928501325,-6845.2761978152,-5708.7355969008,-5022.0922825953,5954.9553671403,-5303.8441458946,-3376.7347546771,-4385.724644787,-5270.1433186007,3633.6315446918,-3966.3596093901,-4955.1363057991,-4433.4646630228,-4471.1352932018,-4331.1063782134,-3716.8755484603,-4139.8101688841,-2704.6362287002,-6497.2042196227,-792.7678816234,-6358.9224211515,-5447.9188936546,-4357.5159664084,-6008.2507737331,-4664.6608275386,-5871.2806090688,-5337.2905584319,-4547.5345114941,-4991.582449305,-4000.2312837102,-4431.2695809144,-4735.2907843456,-2419.8838331398,-6456.8258558287,-4692.8257132567,4303.6662238871,-4966.552207031,-3805.4552879183,-4391.2354622282,-5498.1078571987,-4304.1882339375,-4649.3732983447,-4283.258706483,-5822.6050085594,-6319.0091224941,-5014.4965051266,-3839.3836456253,-5615.0092942241,-5259.5890020165,-4127.9619920549,-5984.1859214281,-4645.9617152389,-4410.6546522081,5668.6459660289,-2722.7486136558,-4389.2458789679,-4733.4460754817,-6196.1263493189,-3223.1108261484,-5705.6020538763,-6358.421341857,-4585.8262237949,-3660.3548760991,6330.1275615353,-6118.2816348529,-6493.340694809,-4965.1590180992,-2144.2644552784,-3841.7182021025,-5390.0300162044,-4255.5594079675,-5077.1330737052,-2715.5660682744,-4782.1946414309,-6497.832055982,-5909.2330352002,4779.5459221556,-6799.1443589381,-4960.525535931,-5893.1187230818,-4599.150548144,-4835.3437748865,-5829.0217157668,-5821.6958787733,-4077.5278824547,-3821.5217055088,-4627.7619165423,-6496.4863143532,-4560.7197591123,6526.8531741442,-4958.9156463835,-4316.9425654019,-3176.7534981759,-5090.6043451081,-4563.5632312377,-5171.7597891454,-5852.020807516,-3375.7504414462,-5806.3271033352,6215.1682979723,-4468.7309453179,-6125.9820683968,-5074.0053843863,-6126.1605528983,-3803.4587130144,-6280.095009674,-3888.0570942802,-5568.9299806164,-4353.9719708386,-4989.3036287092,-616.2430367731,-2951.4401925991,-5936.9683478011,-4642.0962203232,-5552.7106331359,-4923.2117261298,-4570.5496443427,4489.3280012131,-5995.7469146674,-4989.7352569234,-4388.4986778898,7148.9305840328,-378.1858076014,-4986.9305913155,-3727.955974728,-3963.512469541,-6442.7627326617,-4547.6942486291,-3460.0250283878,-6852.4375198176,-5359.9078220744,-5022.6916705185,5954.7992060682,-5303.6155793761,-3375.6750188987,-4385.8336502207,-5269.9269561134,3647.4255278483,-3965.8218608156,-4956.3084959012,-4433.4171775555,-4470.3665333752,-4330.6469860965,-3717.2898414384,-4140.1524173934,-2704.9953112901,-6497.8742937574,-791.8987329378,-6358.9151713895,-5448.9171566374,-4357.0367157766,-6007.2741418233,-4665.6850197315,-5412.1094213232,-4897.8305258009,-4548.058485743,-5271.5019405409,-4043.6098938455,-4431.0126481185,-4450.4184153416,-2420.0212293616,-5995.6663374365,-4693.0796522079,4013.9694912869,-4966.5041344978,-3805.02329433,-4391.9699175465,-5498.5099210376,-4304.3021445329,-4650.0549670787,-4283.2694219396,-5822.6750832233,-6318.9635079966,-5014.7984615234,-3838.702875913,-5614.6282081082,-5260.5627884032,-4127.037195105,-5983.6210434988,-4645.9429246914,-4410.8959870756,5669.277162967,-2721.9353875846,-4388.795403306,-4732.5392194755,-6195.8824449733,-3222.9178808426,-5706.4077255202,-6359.0743763788,-4584.8162973766,-3659.788179773,6619.8282545161,-5713.0414951903,-6494.6705235379,-4360.7402718881,-2144.5430647596,-3841.9871847366,-5385.312888883,-4255.4746353407,-5076.6583145628,-2715.5216053854,-4780.585958347,-6497.4973668136,-5909.6898664821,4644.0184779489,-6798.0743896605,-4960.924828467,-5893.8566559503,-4599.277096547,-4451.6861402623,-5823.4938007219,-5821.5862283728,-3647.9841776711,-3820.8469103155,-4627.025145388,-6497.3363546149,-4560.4681542262,6526.8127025322,-4960.2887653034,-4317.3904385394,-3176.9764522733,-5366.4321816241,-4563.940659617,-5171.994603044,-5852.3235818869,-3041.4691649324,-5806.4221341676,6215.1405378762,-4466.5858972126,-6127.3390183045,-5073.4045623067,-6126.0034598186,-3803.5160070833,-6280.0643061938,-3888.9467100465,-5568.8528999296,-4353.30286941,-4989.4248409591,-616.0673312584,-2951.5117745643,-5936.724306167,-4641.4094660547,-5552.1857339904,-4924.1597472843,-4570.7904143211,4357.3610744944,-5995.5676814674,-4989.6388803328,-4389.1667016052,7148.687873418,-378.1734944723,-4986.7670047605,-3727.9808818375,-3962.9490110598,-6441.513562179,-4548.3254752773,-3460.7739513114,-6846.5281161228,-5358.8911137433,-5022.9826550918,5954.7902282182,-5303.4543069818,-3376.0417003504,-4385.6142723631,-5268.9091837749,3648.0483783614,-3965.8039475548,-4956.1600142518,-4434.1910088332,-4470.364389451,-4330.3810144965,-3716.9804883953,-4139.4245208932,-2705.7038357311,-6497.7106925506,-791.9452748445,-6358.9841826978,-5152.2004469574,-4356.2967104464,-6007.8124951644,-4665.1870334639,-5411.1404579826,-4897.2062931792,-4162.192756763,-4658.7548957858,-4043.081036469,-4430.4338967503,-4735.2861749656,-2418.2116267651,-5996.4429423733,-4692.412778951,4014.8317426102,-4649.7750265731,-3805.3265689851,-4391.3549582201,-5498.0887546773,-4304.6019195897,-4339.9435398443,-4283.6796244081,-5822.3399144089,-6319.0687826817,-5014.9809470424,-3838.8753331994,-5614.8725540326,-5260.4177954276,-4127.0286859059,-5983.2405309821,-4646.3311172917,-4411.223101465,5669.315817527,-2722.3888834901,-4389.2812661471,-4733.603595862,-6195.1983467262,-3222.8257997979,-5699.931916974,-6358.1830733326,-4877.6608278094,-3659.9142927057,6285.0752958554,-6118.6157689546,-6493.7323686269,-4679.24440888,-1847.2938315476,-3842.2797299424,-5390.5531853853,-4255.3905164787,-5076.5127656122,-2715.1615507834,-4782.8757004932,-6496.5853618384,-5909.3907988195,5119.1173508712,-6798.6817628056,-4961.450967924,-5893.378560675,-4891.280705942,-5295.2824218264,-5829.1405293783,-5821.5640506771,-4077.379424506,-3821.0512964455,-4628.3637802308,-6497.3482384193,-4560.5402128747,6527.1932626556,-4958.8890148432,-4316.3634727328,-3133.9043076579,-5091.5958526915,-4564.0437408433,-5172.3784860451,-5851.769440459,-3374.9787235464,-5806.5120015823,6214.8134641892,-4468.5265803716,-6127.2344237244,-5072.7738946745,-6126.1658821485,-3804.0319944595,-6280.2203944234,-4179.2790708208,-5568.6282435896,-4353.3404619454,-4988.937679035,-615.5915594466,-2951.1564533709,-5937.2540777597,-4642.2839471976,-5552.2652494153,-4924.4131417135,-4530.9577822876,4778.8771347515,-5995.5771606567,-5284.1698629239,-4389.0111605391,7272.9662541869,-378.7953056398,-4696.7554963402,-3728.5660017554,-3963.147535113,-6145.4890806476,-4547.6394126411,-3411.2121130815,-6845.6516655683,-5360.1655261837,-5022.9345782601,5956.0805012064,-5304.1360406319,-3376.6531226671,-4386.0484304741,-5270.2877540463,3634.7154730573,-3966.3782640701,-4955.3410487651,-4433.7971447423,-4471.0046084626,-4331.3731837238,-3716.854519919,-4139.7484864097,-2409.3670647283,-6496.6095482553,-792.277564276,-6358.9724497331,-5447.9553158377,-4357.0319180262,-6007.837983513,-4665.9830664294,-5410.9000016451,-4897.801377134,-5012.56170987,-4990.8517675658,-4001.357608204,-4431.3205955233,-4735.3414831006,-2419.8964237789,-5995.1204832747,-4692.134892025,4303.818718833,-4966.6205458574,-3806.3411919955,-4391.8116411089,-5497.6278618714,-4304.5329766795,-4649.2246973105,-4283.2723002527,-5821.9051846589,-6319.8205173972,-5015.2668320205,-3839.7812151196,-5614.3607366964,-5259.5689547751,-4127.5810766027,-5983.8574414822,-4646.2192706146,-4703.9591930843,5668.5451171555,-2722.2294591607,-4388.6120540913,-4732.6014650927,-6195.7887721436,-3224.1212916783,-5706.6144571672,-6359.1147602137,-4585.4885052872,-3660.3919948514,6327.8970497044,-6118.2367230207,-6494.2380080871,-4679.446087633,-1846.8869434538,-3841.872909453,-5390.3858897408,-4255.5181850468,-5076.1127953858,-2715.4831767327,-4782.9441381755,-6202.6539117227,-5910.0051381334,4541.6507883971,-6798.928817092,-4682.7714415553,-5894.0376179951,-4599.2653877266,-4834.8377919102,-5566.3184691379,-5822.1533728682,-4078.4131943231,-4119.5954654716,-4627.792165452,-6203.1913895122,-4559.6637207502,6353.4087636086,-4959.594599119,-4316.8091379684,-3135.3630445913,-5333.1230893395,-4563.8301072073,-5172.1986610572,-5852.4043603272,-3375.2360681434,-5807.4029152197,6219.2774519987,-4468.4473670489,-6126.2926390866,-4766.3187980578,-6126.4051821205,-3802.791021552,-6280.5784669249,-3888.5649305807,-5568.6817969162,-4353.8861799264,-4989.5673519455,-615.2936235607,-2950.9781931399,-5937.0867694077,-4641.6159432383,-5552.8091403837,-4923.3198421836,-4285.6967902564,4199.8544259683,-5996.4262974422,-4989.7592992856,-4681.8240729492,7272.2889378457,-378.0024629594,-4697.3918183803,-3729.0576759466,-3964.4305096382,-6442.8398414495,-4547.6241921541,-3126.185159891,-6845.9932918718,-5359.2959401302,-5022.4872829946,5955.0081472237,-5303.417767918,-3086.2732859326,-4386.0657606004,-5269.6230043138,3358.2752396255,-3966.5575839899,-4956.1804172601,-4436.2902977358,-4766.8257891653,-4331.5683504925,-3717.8653607411,-4139.4746712546,-2705.4890374514,-6202.5539201145,-792.7755683545,-6358.3226245326,-5103.6454699887,-4357.805999641,-6008.1251556261,-4957.0277654183,-5411.3893733091,-4897.3826310429,-4547.804210692,-4991.2848126447,-3742.7175672041,-4431.4411342825,-4444.6509210783,-2710.8058075764,-5996.4168626252,-4692.18900602,4379.0055443962,-4965.4986078008,-3516.6962374353,-4391.2926365569,-5505.6453590769,-4305.2990375504,-4650.260386481,-4283.7199656638,-5822.9956002261,-6319.965417495,-5014.2087851068,-4137.6184910523,-5615.3226735767,-5260.0536396447,-4126.8036300027,-5984.0190333392,-4646.2890908164,-4703.1513986715,5669.5871707878,-2721.4021923693,-4681.3254016918,-4733.8601430436,-6195.2259453027,-3223.9373339078,-5391.4102643521,-6358.2736107624,-4585.2364482245,-3660.8168542368,6569.2785818022,-6119.3253653995,-6494.5880067045,-4376.8561733092,-2144.8657213674,-3550.0675864588,-5390.2510221363,-3953.8435319892,-5076.4185500999,-2714.8808256263,-4782.9066900287,-6496.9351765918,-5909.8463351312,5120.0075486323,-6799.0633565141,-4657.0235021184,-5892.8083693892,-4599.7835120257,-4467.4982019423,-5512.0695106665,-5822.2304959853,-4077.3911526465,-3522.9621678872,-4327.63783332,-6496.5917569064,-4560.2566399169,6476.3100496423,-4648.4558125643,-4021.4974397547,-3133.2962997584,-4808.97231974,-4564.2729972712,-5171.6568179926,-5852.3228657314,-3375.2879934215,-5806.3766640962,6504.0530504811,-4468.6238678424,-6126.7941732449,-5073.4557881952,-6126.2244691705,-3803.245444827,-6280.0678744833,-3888.0594404198,-5255.6215381449,-4059.8968898084,-4989.2112305289,-615.7680169082,-2951.5964098093,-5937.093141542,-4325.1927284897,-5245.8573744579,-4611.6273519104,-4531.4264265864,4778.0786527785,-5995.5562716178,-4990.319247725,-4096.2385622317,7438.7250526801,-377.5037907584,-4398.3522916549,-3436.9202712683,-3663.2623498627,-6442.8083967974,-4547.9459576156,-3412.0934676418,-6845.635392765,-5359.4706042569,-4710.1133894454,5960.5093876585,-5303.229873447,-3082.0042022613,-4090.9379742708,-5269.2221000474,3391.0647643576,-3667.9259220538,-4644.055554787,-4139.1407732924,-4173.9054666515,-4036.8655617156,-3421.6242545442,-3846.3797543803,-2705.3207552907,-6497.470861358,-792.3907401703,-6043.6668360595,-5448.9960341958,-4043.7756108195,-6007.9356861683,-4374.0361508185,-5411.7038552721,-4897.114904882,-4178.608571593,-4675.4163259608,-4000.5711953852,-4137.0353718461,-4734.4694100521,-2367.4077164068,-5995.7831027,-4398.190059814,4303.947273953,-4657.0464096013,-3222.5033468665,-4391.912774451,-5294.1953796931,-3980.8867791644,-4649.0353878067,-3973.5559970858,-5822.8011940581,-6319.3781715528,-4719.310074194,-3244.2846114935,-5614.9692486561,-4959.633804773,-3832.4606108369,-5984.3220385508,-4346.531182125,-4118.4363976273,5673.9634022273,-2721.6768807013,-4096.9014789832,-4433.3472446073,-6195.5701428071,-2936.0453088009,-5706.214835686,-6647.8715015541,-4875.1194885191,-3950.5867485251,6154.5114016055,-6648.5220943244,-6783.490934961,-5255.2531967968,-2434.0584435673,-4132.0244028011,-5680.6149296745,-4855.6463602082,-5366.9226267311,-3004.7651287789,-5072.1373206873,-6557.3510075613,-6199.4912043772,4490.8044064235,-7088.6073232682,-5251.4444664121,-6182.6596331399,-5181.5015296951,-5567.6067754866,-6118.5470109614,-6111.7663649956,-4367.5160351667,-4119.1278564181,-4917.9893233898,-6557.1585668406,-4849.6620848087,6237.0267346494,-4960.8117743295,-4903.6830783245,-3466.9587959775,-5380.4464437023,-4852.9115046166,-5461.7346355012,-5865.040879502,-3664.6279523768,-6097.1251087894,6040.0617614459,-4998.2675854499,-6416.7875141752,-5362.7502273464,-6416.1765460646,-4092.8737576121,-6570.7129206996,-4468.4147169261,-5858.4375565008,-4643.2993702278,-4970.194904615,-906.1529211797,-3240.6346441682,-6227.474281423,-4931.7801311033,-5842.3449623841,-5212.7420541214,-4999.2960444124,4476.0530818045,-6285.6945655931,-5279.6872960976,-4678.9831910891,6859.2365594219,-668.3159647984,-5276.9287082933,-4018.8756266212,-4566.1814104075,-6972.0250273257,-4838.6912353898,-3750.8450898941,-7544.3051671259,-5649.8592624109,-5023.7429079971,5666.0992248074,-5593.7879634532,-3958.6753718276,-4675.9952548829,-5559.3740107557,3357.898363737,-4255.5041956531,-5245.8607139526,-4485.2586271099,-4760.1337036559,-4621.5049444743,-4303.6894276418,-4430.3108878509,-2995.4390933999,-6557.1813223536,-1081.8883888956,-6649.3736594977,-6044.4934781313,-4646.7757955808,-6297.7607462744,-4955.2986342178,-5701.3366370871,-5187.1112938455,-5285.505367746,-5560.5716755918,-4078.5982818641,-4720.4353290482,-5044.0010648923,-3000.7702667564,-6285.0915349586,-4981.7564220511,3775.5489036672,-5256.4982429463,-4145.4783277861,-4681.1840198109,-5787.7359566856,-4946.8497275725,-4939.3685235262,-5223.0678387526,-6112.5733932477,-6608.9269728513,-5303.9240240987,-4136.5574148989,-5623.9293639645,-5549.5744428785,-4417.4614154749,-6272.9629116492,-4935.9081538894,-4992.9327742303,5378.8433018215,-3012.1982904537,-4679.5135520596,-5023.1156203921,-6486.0430937282,-3512.7204533142,-5996.2646958234,-6358.1722781296,-4877.9265108734,-3661.0126808856,6287.5441392923,-6118.4804716507,-6493.5126092551,-4679.0591947492,-2143.8303701896,-3841.7742410523,-5390.1823604314,-4255.2888830021,-5076.3224643441,-2714.4817008247,-4782.6985209873,-6497.8798862508,-5909.5754670058,4829.9542067111,-6798.4676136663,-4961.3435099707,-5893.1579256596,-4890.4599482004,-4835.4727062381,-5828.3361071507,-5822.4989604649,-4077.0936628338,-3822.2702208229,-4628.6525249467,-6496.9408134875,-4560.8896836862,6527.3606235879,-4959.7406159886,-4317.2514845417,-3133.8126952304,-5090.609420093,-4563.1535150588,-5171.9893238128,-5851.3999529255,-3374.8086133345,-5807.4767537218,6214.2328041268,-4469.8611898826,-6126.5152175102,-5072.8317630968,-6127.0978759624,-3803.921952132,-6281.1131319306,-4178.251101764,-5570.1635965903,-4354.1766886546,-4989.6372325772,-616.2410222766,-2653.6712162571,-5936.9955700539,-4641.774600305,-5552.7658107816,-4924.2355487227,-4531.5712501895,4489.0159268531,-5995.4583852909,-5283.7346399278,-4389.1684239547,7272.2549797752,-378.5590549024,-4697.87179396,-3729.0602929992,-3964.0261408651,-6146.5214272486,-4548.1624773967,-3411.6675913578,-6845.2743628523,-5359.1623935967,-5022.0213050531,5955.368703268,-5304.2652571689,-3376.6473287621,-4385.5528408679,-5269.0219012065,3633.6018557743,-3966.581236444,-4955.2639083723,-4434.2685382817,-4470.7537980411,-4330.5994109333,-3717.0875822119,-4139.7644542964,-2409.903473401,-6497.4640361593,-791.643222754,-6359.6654910501,-5448.3431981011,-4357.68108499,-6007.1165460273,-4665.5216037639,-5410.8512069752,-4897.1055298662,-4548.1306508151,-4991.419301042,-4000.7759616408,-4431.0061362081,-4735.0190705856,-2419.6853316958,-5996.1160697708,-4691.9712542858,4303.9330406655,-4965.5599005862,-3805.2366002786,-4391.3184102824,-5498.5621950016,-4304.4596211845,-4649.4962021303,-4283.3701124444,-5822.5437132592,-6319.7074867375,-5015.322161683,-3838.7585963512,-5614.3405644034,-5259.8302912556,-4127.8705245125,-5983.6023426296,-4646.5912048895,-4703.4039094639,5668.9661558662,-2721.5969723118,-4389.3796245288,-4733.2260729578,-6195.1387954534,-3224.2336262455,-5705.4166157175,-6358.4839794679,-4585.47829771,-3659.5237241171,6279.1591944105,-6118.8231525607,-6493.8426116105,-4964.4632486229,-2144.3786782738,-3841.1464256058,-5390.1703776227,-4255.073237513,-5076.7942586443,-2714.1466296207,-4782.1078275681,-6497.3282171779,-5909.3139678738,4829.7750341632,-6798.0178707879,-4961.4080025351,-5893.3029515225,-4599.2344489843,-4834.5687013447,-5828.483570102,-5822.1382425088,-4078.1221293113,-3821.2240591132,-4628.1789350193,-6497.3810244149,-4559.6284013308,6527.8017834254,-4958.8931706796,-4316.1407112318,-3176.5060887253,-5090.725851318,-4564.1653780837,-5171.950690353,-5851.3085330048,-3375.0852286145,-5806.5475104348,6215.7013616927,-4468.6760236929,-6126.9341237354,-5073.6353852998,-6127.1903752618,-3803.2931903888,-6280.7171716282,-3888.2826945899,-5569.4068864727,-4352.6411074348,-4988.5162717134,-614.999727356,-2951.5750388935,-5937.2605967547,-4642.1343124677,-5552.9069829038,-4924.1748533254,-4569.6341611819,4489.1584194685,-5995.0669990721,-4990.4028553564,-4387.8824806451,7148.2478792571,-377.7304395079,-4986.4682134323,-3728.4916837098,-3962.9620353031,-6442.2506354185,-4548.5903996731,-3461.0465696236,-6280.0979312462,-5359.8851263583,-5021.5274355707,5955.9255859109,-5304.1896525053,-3376.4800962976,-4384.9690429823,-5270.0370460439,3647.0280218977,-3965.5038666714,-4956.1717199191,-4434.3089700095,-4471.0644741045,-4330.7341486001,-3716.4267472967,-4139.876929069,-2704.4149506514,-6496.6250405472,-791.5979905236,-6358.5706302993,-5447.7409682647,-4356.7802736815,-6007.3798248961,-4664.9353491362,-5411.8399934572,-4897.8490473395,-4547.7769756354,-5271.4076871545,-4043.5807106664,-4431.5825835634,-4734.5719027867,-2419.5361654878,-5996.1755650193,-4692.6428984544,4014.0615412392,-4966.5455801924,-3806.1465431024,-4391.994575932,-5498.4637442083,-4304.7593237766,-4649.22318138,-4283.2202033858,-5821.8823994524,-6318.6862189907,-5014.0035685286,-3839.0073422496,-5614.9022418034,-5260.5284526724,-4126.5903210086
   -5983.8165039083,-4647.0068653556,-4410.9089251334,5669.7730112776,-2722.2631758598,-4389.3644131336,-4733.6171193497,-6194.8974281969,-3222.7530377644,-5705.1071666861,-7253.5268693907,-5380.4658641,-4455.7396651421,6147.0606529998,-6913.9561499524,-7289.1748126547,-5760.0434253643,-3040.2136382889,-4637.2520678625,-6285.9967610246,-5150.4138243867,-5972.8045145913,-3610.65015061,-5677.9720432088,-7062.7272995232,-6805.3811985814,3815.5270261613,-7593.9790075447,-5856.7884665244,-6788.9697020707,-5394.0019798128,-5285.2252659126,-6724.6120369982,-6345.5561019129,-4973.6649293458,-4034.5881273672,-5422.3686309143,-7062.9026852317,-5356.0728808103,5631.9691975197,-5566.680690787,-5212.6403877502,-3971.9345350028,-5984.4486308286,-5359.7524295479,-5967.1248142152,-6186.7007881087,-4271.2961573177,-6330.1769511586,5554.4443315918,-5364.9706097139,-6921.4037594588,-5969.2855626823,-6922.3403607993,-4598.6204489337,-7175.826514682,-4784.0694726771,-6465.0205059184,-5148.221626902,-5884.3193610247,-1510.8901122456,-3845.9322800312,-6732.9611360396,-5537.6686278514,-6448.3206340525,-5819.6116415346,-5605.7132355199,3273.4042188988,-6890.9069874489,-5784.6499592095,-5284.4976626164,5855.326507547,-1274.1469041878,-5882.4190403293,-4524.4400814883,-4858.9621607432,-7237.50974253,-5443.5071107419,-4355.4763834652,-8149.8710344405,-6254.2719429486,-5628.0154418493,5159.9681113095,-5933.647400481,-4272.3730549263,-5281.1949127781,-5784.2540162676,2851.9995696275,-4762.085472059,-5850.9778385027,-5091.0861178407,-5365.608060798,-5126.3216720957,-4512.7334052922,-4935.0842458834,-3600.1138932156,-7063.4693460438,-1587.2671555999,-7253.8070826605,-6649.757737952,-5153.1202191429,-6903.4762528138,-5560.1038027708,-6307.1743420165,-5692.7993843937,-4995.536512846,-6066.8323945368,-4683.7435080021,-5226.2209157471,-5648.8026770698,-3267.2172967488,-6891.3296217643,-5587.2516874074,3289.6042761061,-5861.9426692887,-4751.1371388352,-5287.7998378316,-6394.0988099946,-5200.2901792887,-5544.4878182988,-5485.764461801,-6345.5731049163,-6908.0555817042,-5810.7984569836,-4344.0233778741,-6228.8488814601,-6155.6481253843,-4923.2434484615,-6879.7312704662,-5541.7674788097,-5306.7243628123,4873.4192739629,-3617.7199778224,-5285.3317516085,-5528.3103625869,-7091.1553317269,-4019.407350859,-6600.8163089058,-6889.5848807505,-6888.903115392,-6889.2324243638,-6889.4578962663,-6097.450721857,-6723.3171359078,-6723.4381442275,-6888.7923544401,-6889.7371168025,-6888.9203438473,-6889.8998431364,-6888.7081246395,-5932.4334247216,-4250.5733993267,-2628.8878639309,-1326.1338579901,-2319.3761263529,-1641.7949732231,-2301.5666200045,-3205.6985353981,892.9892680668,1775.804414929,-965.3084395553,-2906.3961365235,-1356.1680900501,-713.8277285042,-785.7997455143,-874.1149882427,-981.1972511291,-2884.9060852455,-2308.6455599823,-2307.9367745721,-6889.490889461,-7055.096943984,-7054.5794832391,-6888.7187446601,-6889.9570861293,-6889.7985404547,-6889.7894305352,-6888.7375844976,-6888.968143785,-6889.7682262553,-6890.0719838762,-6889.5598271978,-6724.1333961394,-4250.6893145722,-2828.4110159032,-2318.487850693,-2321.3121538769,-1611.7930700813,-2199.2336592245,1041.3429027475,3926.9875539586,3460.3169603692,787.3090470825,-1555.7482574087,-1516.1245472575,-1345.6562501207,-1831.6392970705,-2231.933240821,-3350.5800486558,-2787.1072901584,-2497.7982587547,-858.5710963083,-7054.926288974,-7054.670190387,-7055.1767843528,-7054.5173427767,-6890.0724969307,-6888.8720534546,-6889.8279106261,-6888.8588590737,-6889.0521957565,-6889.2714130934,-6888.7086829137,-6889.9932308897,-6723.4976428617,-5327.5412695722,-3548.0671783011,-3244.0260627031,-2889.0311477563,-3277.2053540786,-938.6679480446,4178.7012620057,3550.4737401205,3737.1405257584,970.1028282104,-2511.4537258106,-2604.2297150631,-908.567909418,-1161.0109561852,-3907.9027679055,-4106.1441184917,-3522.1386520278,-2785.824967314,-2596.6699058038,-6890.0176608444,-7055.5350547729,-7055.7675690123,-7054.7960056126,-7054.7853960349,-6890.0390543274,-6889.444919311,-6888.905266291,-7055.3115610965,-7054.9484416583,-6889.221909407,-6724.216976456,-6723.8081328159,-5327.789395286,-3951.1712153519,-3483.5378034078,-1720.0885722369,3198.3473785847,12080.9201524279,8958.991405051,7494.3658791327,8919.8917264829,-248.0879604664,-1180.7948949909,-2057.8971217462,3909.9545047221,-309.0821112083,-1023.0006824809,-3816.2196419574,-4004.3466211422,-3545.6089545784,-3838.9049784976,-6889.2887404031,-7054.8609914506,-6888.9422308494,-7055.7267674995,-7055.1368302029,-7054.7912620266,-6888.8910256034,-6723.7838811578,-6724.0350179157,-6723.2251480827,-6723.9133841845,-6722.9203847169,-6415.5917814705,-4967.3988170461,-2512.0633001088,4901.7794039163,3364.4024161799,6858.4924595154,6369.4430227162,6304.3459445801,6303.899001364,6304.1821362979,6177.029389236,3394.1950323925,4974.9835201235,8481.519213388,326.5051069102,-425.3018591658,-2167.2267927028,-3258.5220893926,-3549.0769458629,-3838.6122199895,-6888.7418220597,-7055.2638585603,-7055.5690345307,-6723.8274683473,-6889.9191084737,-6888.855030964,-6723.2636897215,-7103.4896305865,-7484.8231105632,-7485.1976624333,-7484.7157150625,-5324.5257123644,2303.7847602704,2627.0066462326,1044.4652633614,1826.1112047132,3995.5095409835,5507.7246683812,5723.7161045268,5722.7685699023,5722.8096924482,5722.8606173235,5798.9194346605,5990.9486712742,5630.0230259973,6612.5655480638,6331.4543076148,-2212.3501498385,-931.4778893772,-2917.6047984657,-3093.5355140294,-3840.7746283378,-6889.5210084318,-6889.3503141518,-6889.3933793348,-6723.1660735833,-6889.9658081497,-6889.9642956058,-7483.9733039839,-7061.2093115209,-7607.5671327184,-7608.5892137605,-9968.277089557,-547.8523447118,1752.760517838,1751.7825986824,602.206519793,2927.5939428513,4886.5701177885,5433.0566662713,5598.6077213943,5599.704880968,5433.4147665851,5433.6403342447,5722.7658503411,4929.8463831627,3549.9570289874,6088.1154166257,6569.5160803598,6024.0087552199,96.9563560169,-875.3222038927,-2669.9860708377,-4738.9778000234,-6328.6252350533,-5618.4639168039,-5901.5640093815,-5825.1011037434,-6723.0701700528,-7484.2717441222,-6895.0147474849,-6061.9687683914,-9411.2872615913,-6200.7598883862,-3284.35008392,375.8323838925,1344.1148932745,327.577492476,2431.1905630616,4098.5071128316,5268.2724531218,5433.0445716666,5433.2675336572,5433.0099928106,5267.5622349775,5101.5376894808,3268.012854648,827.4683113304,888.0739868861,5310.6907158575,6087.8168476381,6643.052865949,7891.4316430871,562.3144044823,-1937.2212388126,-4284.720630907,-4219.8064928736,-2317.4379013157,-2548.9014398005,-1195.4349540799,-3317.4094317065,1196.1972919774,421.5868809929,-1332.5364058611,-3078.8856919032,-3549.5580300385,-2764.1361359883,-1663.8776488635,586.2742033698,-20.2189480877,1639.9005417935,3932.9955940192,4648.9794007003,4874.4481105717,3954.7522205198,1057.1112007977,1020.3053615388,488.9939612248,1248.9705084098,-22.7324942431,679.0620854856,4306.8174302737,5096.1119113037,5675.5336172415,3789.7679705569,-2637.0498562566,-2885.9139379805,-6456.374558312,-2076.9305390494,-1135.9625218036,-821.8394678251,-557.1427808717,4186.9585327331,1663.817955021,968.2880902812,-895.880514053,-3142.2121102921,-2332.1108210501,-1845.7835741356,-1736.1050751296,1557.7717122307,1576.5697080369,285.9769130089,1931.5179384259,2755.1447211054,2896.4232126304,2978.1524416917,3086.7849651853,2492.5548869356,821.7566715225,1409.500041952,1076.1520642332,969.8077992415,3957.2541847701,5557.2928474918,5310.3789816348,2287.0035493881,-4865.4774858919,-6041.5690085743,-7091.2594778731,-1244.8652626607,129.0709799387,-204.0851244174,5185.6449545538,4914.1867237692,4773.2384976317,3732.2301204221,1684.9752658634,-1242.7880367585,-1371.1326487441,-1595.8170319113,-845.7854049586,23.9452386095,-0.3817879053,-662.5330747441,-176.2766939064,2704.7294402199,3386.0156904595,5040.1841494948,5433.1472020519,5432.9754688132,5433.0432729469,2459.9797897474,4849.1304701725,5015.1303729007,4415.9789302167,5268.1695665876,5723.5498872437,1806.7091803285,-7405.9963455553,-5771.8821294033,-7090.6572923963,-1543.940159586,-805.9728894812,-191.6814590025,2736.2977757456,4278.2408894992,4187.6759086007,4648.737399168,4353.6489761503,772.5464818336,1240.6124893631,1627.0546630631,1301.2980285334,1218.2173310875,-238.3674967468,-3572.5066455198,-4394.2236080658,1278.7319536996,3105.571546226,5267.5448077558,5433.0569111402,5433.3799399043,5433.9641457307,5267.3825548771,5267.2529160586,5052.5109469009,3776.4765578304,3060.5040120501,4381.124799015,1461.522410059,-8171.8466323978,-5151.0052360279,-6890.6823838916,-3453.0168043331,-833.9981034602,8975.7880088136,1218.3390239429,2874.2584179291,4051.2156016263,4813.7842168073,5433.2781342453,4070.4309281092,3523.0827372017,2717.9917438327,1686.2086130263,2340.341157635,-3188.0509574739,-4476.9979617759,-3689.8444704203,-420.7540931703,993.7212551143,3734.8807565411,5101.5875398221,5433.3754298931,5433.8287010561,5267.3898467372,5268.3257189268,5268.1610012788,3561.7711689957,3324.6672015966,406.032947558,1279.1100426322,-10006.3811698127,-5461.4570819195,-6889.9643853836,-2158.1375178931,-1410.7317908054,3476.9645211867,3374.9115618972,4814.2397717751,5267.9274518628,5664.9186502603,5831.3057102356,5499.4039032556,4519.2809099014,2334.8143026924,-2049.3176846912,-3085.9736650631,-3487.6556056595,-3197.6759692158,-3689.911779738,-3053.5608352251,381.3399602481,1098.1059224824,2757.3609517589,4935.5991381125,5267.1120683141,4007.0925293191,4401.5682622596,4770.6536179357,749.252645275,4375.1657255056,1895.6930760214,1448.4671965484,-500.9689044963,-4345.9244289913,-6890.7936414302,-1154.2923982205,-908.8139319166,5204.4029539152,4626.5113101913,5102.4823244733,5665.6231909407,5830.4109437589,5831.0522153334,5433.5085984347,4028.9701906951,3371.7201614092,-491.5255154286,-3218.4507371908,-3105.2533670575,-2768.2507737376,-3642.823348738,-4359.013264015,-586.0772005604,1424.9296767663,1524.0094838958,1237.0156368131,1429.1372983752,-289.5790929342,93.1630870558,3504.9211006677,293.036799504,338.9548444335,572.5690476156,1450.090460703,5231.4882077397,-3710.7439256204,-7090.4760490452,-1108.1836847761,841.8645859869,4745.7564714062,4207.2133590835,5101.4245320675,5665.2882789521,5830.5116995545,5830.8429750162,5434.1197405059,4051.997663658,2773.8310132216,420.811197409,-2586.4607905183,-2599.2734160106,-3518.6796737953,-2767.6776479209,-2818.4475540153,-2046.2501246333,-225.478080426,556.0502232014,-1254.753263841,-2370.6060555242,-2084.3021431889,-741.9274934821,736.5623441472,-40.4217677529,-653.3152552868,411.7011092558,1588.9765425406,-6498.5987185684,-5363.5846217602,-6699.1178056132,-1119.594561291,8819.9635710826,4745.1684147246,3548.5587053429,5268.0920160198,5665.21493184,5830.911816265,5831.4069046082,5665.5632173923,3681.9516936517,1913.3439317466,302.8625301093,-3608.757296391,-4358.7089064055,-3614.8627580113,-3912.5835664442,-3650.0583721604,-2604.0455814788,-229.7690522498,1537.6880922747,358.3223861206,-1198.5351876692,456.5217862993,292.1363139574,329.3030335407,-136.6785682964,596.7796533609,72.2384738717,-2203.1190173454,-4256.7408130663,-6517.0335805301,-6865.1999973992,-1313.2247496444,6472.1424462732,5771.0536238343,5434.0418309719,5598.6967113126,5665.3368199712,5831.3333423666,5830.8019522345,5433.2965957264,3074.9373178679,2245.0175786996,1602.9339098317,-1895.7720127871,-4987.6974136679,-4821.3168700555,-3548.1385246415,-3131.3899561368,261.8428860758,1349.511054872,4117.0469554915,4935.6058039319,4177.5065114025,4567.046272911,2157.075568243,-370.468496093,-456.046334573,-1736.9053615062,808.0994540418,-7798.2552988592,-5319.4601318526,-5888.2884319707,-6700.1294615058,-3809.170209591,-802.1374238078,6718.0195139604,5889.1263223844,5599.9118128889,5599.2095777393,5831.1934819585,5830.5321005475,5830.8455532066,5267.236232647,3452.7033335619,2196.4641032147,-1648.1272306114,-4821.3610527592,-4987.9625239837,-3527.8461979541,-1135.7186634824,1900.9232984946,3822.5578857427,3565.7747298846,4455.2026735011,4086.8275893265,4483.2938412962,3136.5099610155,481.1250504978,-1163.6703136165,-1815.926068639,574.3474795795,1821.8913357512,-1438.209374833,-892.0693855299,-6499.5746565863,-3809.0901447052,-1408.1971995481,6085.474823,5392.0590219448,5267.0735876943,5432.9429756021,5831.2269118149,5830.7628355851,5664.6986229937,4621.7226680348,3095.0025430615,2194.9067169072,722.7840873366,-2918.6595553821,-3827.3188068377,-4549.5234985077,-2458.3357713945,1407.6037572358,4116.1648397806,5102.1928297153,5433.6959954925,5101.4822750833,4279.2707530639,2680.4900806225,356.1416335446,-1705.1335662969,-2046.3818615377,237.9064585042,1041.4576964927,4512.8294514657,-1000.494709043,-5383.8602958526,-3301.9022177565,-813.7682176269,8065.2741627542,5014.0971982083,4935.8944342411,3618.0573818348,5599.4398130333,5831.5148757544,5433.9735481658,3536.7271542265,2430.4708280774,1165.8684094392,1024.1336698202,-3003.3853548845,-3392.0885310115,-4077.5416891337,-1213.0101383301,435.3015044852,1239.6176005245,4604.2053024303,5598.8784262443,5433.141647466,5101.8153056646,5267.4892249877,4770.6242275279,196.427427539,43.8423644952,407.3713195013,950.0121489078,3758.502056304,-693.5498233768,-5673.7110288038,-2615.2797840821,-2447.2655944382,-764.4014099823,3024.9903420732,2839.336371915,359.5485282979,52.190095527,3645.1242481784,3976.310088096,3927.2197725403,706.2227394657,-180.52430828,-8.1917588847,-1912.9877096057,-2542.9565485299,-2329.6749088796,756.9300923513,1323.1388976231,1966.8935758841,3038.6882192306,4770.8154477007,5432.9873238528,5101.8114865108,4567.0172651179,3980.0059186261,26.4979488205,33.6710210704,406.4948991823,875.3234707775,3916.3051136784,-1540.1972622908,-5183.8876593551,-4728.01444823,-4993.0735443256,-2807.5392501677,7294.8969436221,2335.6119427475,-2454.5423906582,-2528.9158019438,839.1656730911,1379.5950886208,999.2772293763,-1663.721612576,-2102.4287330178,-374.4649318508,-413.5553749987,-330.415154641,-1904.0658125268,-905.6488686516,1910.0263844216,4404.1645193294,4404.6344586727,5101.8389513197,5102.3737444751,4567.511387568,898.3819702365,132.0309226519,91.7117770321,94.0802115897,240.5248518222,1046.2951075966,3786.4249914171,-630.558030603,-4871.650020466,-4462.6826153986,-4374.9907565431,-3177.8745779828,-2041.804523815,-1246.2155948447,1887.0107644581,-2427.7331107631,-832.3471560014,-305.6833657143,46.7482473214,-3387.8113946056,-4137.527596341,-2866.700143462,0.1678954176,-256.6950674441,-26.4289270143,-166.0736738246,4213.0520013135,4936.6161280933,5267.1683473585,5267.6270078537,4935.5720678117,4935.9159876921,4935.4365464561,133.9323403352,48.1285234465,265.9167170319,730.0478456276,1031.0736853771,2413.872258147,-727.0476663725,-3679.113883099,-5785.3873281209,-5739.4780279972,-4953.2011857533,-3569.8705375195,-4326.3463370047,-5003.5766798345,3317.3475338782,2571.5945293703,1376.7801128908,539.3608454892,-1456.1706470151,-2977.0807766168,-318.78559999,1786.9670074582,3732.0753008676,4062.7073178596,4569.6631457967,5433.5558997833,5433.8133204538,5433.5582417181,5267.0697446932,5266.9730571139,5433.8200970962,5267.8206035888,2748.9592169071,60.9413030508,1740.2566324331,904.6240772575,4200.9151860444,-2470.622053077,-732.7917907582,-1577.0553593951,-6889.7234916146,-6888.8934440278,-5341.6310587296,-3259.5994659068,-2774.8372060884,-4656.2511754171,-5569.7442057007,-4020.0903823197,618.5645001352,3994.5353941372,-7616.720526428,-2114.4059054639,910.3839967065,5055.6919679031,4765.3765483488,5101.2433597548,5433.3614977631,5433.2426227493,5102.3337101172,5433.0197168966,5267.7533790703,5267.3485378907,5432.9573109978,5434.0998379072,4616.6959948779,2546.9706426152,1781.1876564315,1451.8327426347,-2811.0227853482,-1570.5745627289,-1279.8344528244,-1577.1413510329,-6890.0592407085,-6689.0921347234,-5342.4330465682,-5135.4369354573,-5341.5448251608,-6163.658077926,-5175.8912962731,-5245.3002962018,-5026.6845809332,-4837.6457592951,-5974.3506526206,-4486.8448949437,2620.4855878708,4964.2128651909,5725.4777366252,5558.0922382579,5557.1274156906,5557.328788075,4660.1285379824,5176.6419026851,5176.6800688918,4906.6822798404,5433.6897165858,5237.7859420248,5072.9304532311,4784.1768727425,2568.7873514934,4546.8945013416,-4042.6156886366,-1197.4053847532,-1115.7970225728,-1579.7474688743,-6889.4915532065,-6689.0632527794,-5528.9690577669,-5301.0473412365,-6078.2332801695,-5739.5090285107,-5135.8620812461,-4183.4025316959,-2705.0038808755,-2799.0176422891,-1756.4886136801,-1544.5474987057,-2497.9783449137,3975.363212333,5635.8078972992,6119.8601212523,6137.494026748,5847.5232002627,5723.6576797991,5341.8661765829,4760.7708315887,5338.8605586323,5528.1372322336,5529.04682377,5653.239007199,6402.7834906133,4324.746862332,-1309.8796963727,-1202.9744934937,-1700.8350137348,-1584.5991430437,-2718.7526179573,-6888.9362538413,-6688.8772832812,-3273.8107908418,-4134.0466413379,-4797.3212379831,-5466.6975801919,-4183.9508780282,-4276.1795650444,-2890.8139371833,-1105.5511498898,-882.6410001401,-1622.552277568,-607.8834432995,181.6587653656,-1020.163938854,6854.0927595556,7073.8164538186,6784.3384409718,6303.1124754075,6088.5022174839,5721.5642936553,5213.342701502,5986.8953488573,4132.5248724402,2701.8604563125,6689.2063804191,-3672.321997516,-1203.1914479024,-1868.6901773265,-1577.9207715044,-1585.4178066661,-1361.8134628139,-6889.69085218,-6689.2486093094,-4704.1820919954,-3194.3237616755,-2739.6977688973,-4205.6062256598,-4353.7149754264,-4607.6108069527,-1273.2356723084,-85.9571335601,668.1206467866,904.4258274914,215.5109034016,378.1488230391,2988.5638470787,2913.7441835648,4169.1470682227,10792.2054867626,8344.8147580069,8098.9553323869,7338.7905411647,8307.1223901962,7561.6779288363,454.2077127799,-1769.8023547799,-716.6719894023,-1202.867186338,-1704.9859364424,-3038.1255707555,-1578.0890165474,-1566.7554348263,-813.8667789809,-6689.0430010668,-6014.7948095276,-4870.0390639887,-4870.2273361171,-2907.4936827114,-2020.7214031526,-2838.4379788948,-4026.038397288,-2046.0290341833,-1026.5901377701,94.8096246311,397.5896649225,-740.8061124176,1652.1971095305,1946.0552831391,3428.6934206888,5116.8634515644,6235.7975700905,4555.0797696776,3466.6838181334,1810.5824440414,-592.3416465007,-1176.214852398,-2445.5444478967,-3713.1681141177,-2962.4686329613,-2676.7862038472,-1796.4289051517,-2134.2483729513,-1339.8485253793,-1573.6670656473,-816.1823810401,-6328.9372670477,-5314.7549496132,-3313.5686086731,-4488.5900158808,-3062.4244535714,-2920.1460772469,-1033.6720932172,-1018.6022192409,-1039.5746918881,-1027.3010277585,-21.9038643357,-50.2772374569,1152.365228407,2801.6073187506,3454.2131782579,3054.9701765055,4060.4902280419,3386.8302666711,1667.217303111,1191.3254032911,87.8671714731,-1143.2442576017,-1544.9209889942,-883.9233895874,-2018.9918666028,-3590.2928334446,-3595.3833458232,-1390.5593877346,-1112.2877125121,-875.3979428063,-798.9129696695,-799.480491958,-1.2706285234,-6788.7168493808,-6790.0559338106,-6790.0028285261,-6788.8594027527,-5997.6738728038,-6624.0828812183,-6623.084353064,-6789.2172742938,-6789.869757072,-6789.4641086709,-6789.1293196616,-6788.852876717,-5831.5666741837,-4150.5865827598,-2529.4368927884,-1226.2999076483,-2218.4052625598,-1542.1800235741,-2201.9043548839,-3105.2706585757,993.171969178,1876.2284654826,-864.8191461245,-2807.0322292456,-1255.0679060263,-613.1106464862,-686.7844941475,-773.4956231435,-881.0742354394,-2783.9018489349,-2207.6299698552,-2207.6271994458,-6788.7485554968,-6955.7091581258,-6955.0555021362,-6789.1552019855,-6789.8999254244,-6789.8982130602,-6789.7601633091,-6789.8897611072,-6789.4233984339,-6788.9343132244,-6789.0273649901,-6789.6989814204,-6624.0910512877,-4150.1603787455,-2728.7243915199,-2219.2926473407,-2222.0272343129,-1512.3301399546,-2099.28032812,1142.1342159161,4027.1435604505,3559.6983783527,887.1278091074,-1456.5234258811,-1416.2840597058,-1245.6960740759,-1732.0785231192,-2132.2013485654,-3251.2236066947,-2687.8934915432,-2398.0730683658,-758.0850665552,-6955.8211205667,-6954.5741376899,-6954.9580172743,-6954.8053038755,-6789.4753803393,-6789.058640502,-6789.2223974493,-6789.0909851991,-6789.6959747107,-6789.2584352398,-6789.6542713206,-6790.0513768523,-6624.117078709,-5227.3954603684,-3438.1072682316,-3143.0925959932,-2788.9585549808,-3177.148828758,-838.9406771562,4278.3009383597,3650.9306900939,3837.8132000155,1071.1183080002,-2411.5075873762,-2504.8272642263,-807.3067057156,-1060.7586557567,-3807.7494972064,-4005.6770975562,-3421.8805090392,-2685.2889425309,-2496.5690729279,-6788.8585679854,-6955.4401195904,-6955.6905920237,-6954.8673583063,-6955.2644366485,-6789.6717609219,-6789.6526315634,-6789.7765788953,-6955.0003667218,-6954.9358594688,-6789.1399988102,-6624.2567397762,-6623.1955279265,-5228.0684024566,-3850.8377484126,-3383.9763364455,-1621.3828574365,2552.7732349624,11981.0406589363,8859.7613667109,7395.1471660451,8819.0358704579,-148.0463659109,-1081.2978906084,-1957.8207409065,3282.6315071473,-208.9622157688,-923.7382967833,-3717.1863887578,-3904.5751244663,-3445.7133116194,-3739.2258157621,-6789.7855554659,-6955.2487791179,-6789.4300761481,-6955.1770541935,-6955.5215819845,-6954.5096818629,-6789.9506916476,-6622.87061558,-6623.2602381305,-6623.3208424503,-6622.8953469211,-6623.8858889382,-6316.5124391979,-4867.1628566099,-2411.4095290939,4801.3769269172,3263.8559081116,6759.3176732773,6270.3354103966,6204.1757384141,6204.3364388598,6203.9033720619,6076.9005074442,3294.5992113716,4875.2445889112,8380.8886318809,226.2915566501,-325.6234439215,-2067.9883724433,-3158.9644145949,-3449.5716652094,-3739.5806369399,-6789.1901865239,-6954.7448865431,-6954.7059335279,-6623.969839649,-6789.5795788516,-6789.5498729401,-6623.8158597863,-7003.0092903786,-7384.7397833263,-7384.9237517399,-7384.9351326757,-5223.3484538886,2202.7364763808,2527.1502717,944.1562260298,1726.5662590545,3895.6178082983,5407.6784990944,5623.0093832468,5622.8734542522,5623.0133959202,5622.8727629984,5698.6991046476,5890.5134377506,5530.1023444,6512.3341045964,6232.4933992435,-2219.0320354177,-830.5199065844,-2816.8611444919,-2992.9191780847,-3740.3446350516,-6789.5814458248,-6789.5154670541,-6789.1646658012,-6624.1509796493,-6788.8756043353,-6789.451315669,-7384.8064649083,-6961.5124682826,-7508.2204809585,-7508.3460116392,-9867.1052795253,-648.0192215497,1653.0786469606,1652.9643575578,502.583336577,2827.2124747931,4787.0944401246,5333.2753913538,5498.7935617192,5499.0717326749,5333.3803035913,5333.2782332222,5623.0401336454,4830.4117803724,3449.3239060284,5988.7553667595,6468.8834321109,5924.3912528126,178.5767802767,-775.5757589209,-2570.252575767,-4638.4474154855,-6228.9700720256,-5518.3508728902,-5802.568091478,-5725.1349703393,-6624.2323769233,-7384.3287267949,-6794.9517919149,-5962.4047813055,-9311.8502971004,-5810.1221387122,-3385.2646822148,276.2284229593,1243.0465829144,227.6974063917,2331.6968340496,3998.5464895639,5168.1759357683,5334.032301796,5334.1141561814,5333.4040741833,5168.1349920963,5001.2535352797,3167.4709808454,728.1500217447,787.9553015981,5210.6977547487,5988.2312145103,6542.9092048101,7790.8846260119,306.5383341224,-1837.4302375532,-4184.1385942103,-4118.8545764112,-2217.3056216014,-2449.0069837512,-1096.3177912302,-3217.5787271134,1296.8049816601,321.9886876707,-1432.6598141748,-3178.5012387966,-3649.7389608319,-2864.582528546,-1763.3504444686,486.2981513281,-120.0195067645,1541.0009374783,3832.2410104602,4548.6867230183,4773.6265290588,3854.4329178139,957.5440455703,920.3755307233,389.9304690714,1149.1063412843,-122.348267332,579.5397419531,4206.8128905188,4995.9671117237,5575.9709170774,3690.0663802493,-2637.8013664799,-2785.6847550634,-6356.6176349229,-1977.3295944174,-1036.3073080802,-723.0077420337,-457.8382824414,4085.9045892648,1563.6415699556,867.8834896749,-995.5914529198,-3242.8458977248,-2431.9917352121,-1944.7207081761,-1836.0924736823,1457.5374095477,1476.6368232449,186.6797835081,1832.4746708451,2654.6808414919,2796.0663433416,2877.4621351929,2987.1364748325,2392.3296165811,721.9904471106,1308.6867494284,976.3364416208,870.5317097852,3856.8891455891,5457.140893773,5210.5435587772,2186.0430500905,-4543.9770391273,-5941.8381822468,-6990.1205164304,-1144.4022029938,229.0379099742,-104.8511132537,5086.3070796629,4814.0200610674,4672.1746004441,3632.4652888278,1584.9499764073,-1342.8396653666,-1471.4633107954,-1695.5805436384,-946.4180683532,-76.9740511789,-100.7932368217,-761.6034191418,-276.3015256919,2604.7705051234,3286.2500056657,4939.9974356251,5332.8754589327,5333.4816342833,5333.1582227205,2359.424107143,4749.4242998554,4914.0203725499,4316.3000827149,5168.3353108144,5623.1201851675,1706.4700701976,-7078.3655767223,-5672.9245811572,-6991.2304743316,-1443.2322831328,-707.1860662433,-92.0200850966,2636.227137418,4178.1327189896,4088.6774582945,4549.0158775063,4253.7473682462,671.3683091424,1139.6649007087,1526.2410341248,1202.5513077913,1117.3903640097,-338.3324701856,-3673.1478268681,-4493.3901846857,1178.9418128268,3004.9478043327,5167.9553897114,5333.4356043486,5333.6041823867,5333.6684868416,5167.8589012087,5167.5367316905,4952.2941844098,3676.5006307016,2961.0845021015,4281.4086590312,1362.2452566562,-7907.1826514333,-5341.3706237894,-6789.6927297795,-3353.2575408939,-733.3444766269,8875.496996287,1119.350744197,2773.4194914921,3951.1338915483,4714.4924860429,5333.9406575952,3969.6952497688,3423.7005691719,2617.4495541752,1586.8521185341,2240.2087366606,-3288.0006037696,-4577.6978073416,-3789.9732071864,-520.4751679096,893.1381199548,3634.615612253,5001.6244582588,5333.4813604308,5333.6820647365,5168.0074889017,5167.0701774017,5168.2384165003,3461.9277596593,3225.102448831,306.855920801,1180.2518078257,-9905.1057408302,-5650.6632963048,-6789.6476491016,-2058.7432703348,-1310.1476870981,3377.2463942686,3275.1336394278,4715.0112069579,5167.0691950534,5565.4515078793,5731.4721244547,5400.0933771623,4419.1582378879,2235.00856653,-2149.0112537896,-3186.6162931794,-3587.5979577044,-3297.8042562868,-3788.8404658233,-3154.5418244995,281.472856519,998.4341569174,2657.4640384793,4836.3751606727,5168.3294498893,3907.502443652,4301.5456089268,4669.6151948473,649.0356116013,4276.1941825018,1795.11102353,1349.404604072,-601.4739654366,-4245.792705608,-6790.7204610277,-1054.6704270721,-808.7292594626,5412.6646022243,4526.1661432114,5001.2171527576,5565.5379063242,5730.636577434,5730.5377577796,5332.9576098358,3928.3766723922,3272.2422226291,-590.5552613543,-3317.4667028408,-3205.6205172544,-2868.1079523561,-3741.8747777814,-4459.5525731731,-686.8087488222,1323.9995648286,1424.740606803,1136.9600401487,1328.6565549533,-389.1642594385,-7.2485458143,3405.2699992898,194.1174073454,238.5136970553,473.6249769489,1349.163957122,5131.2663766866,-3611.1842859804,-6990.266641058,-1009.4010876082,941.1145797507,4645.104529736,4108.0803356791,5002.3262045299,5564.632524124,5731.456510163,5730.9672061074,5333.6012852883,3952.2376553511,2674.3594781408,320.7384944155,-2686.1356035829,-2700.1752210307,-3619.6225156484,-2868.9180511846,-2919.3008259196,-2147.5500751527,-325.3674704801,456.1866106756,-1354.8634002618,-2470.1000680839,-2183.8683623034,-842.3073177903,637.5814179487,-139.6864349011,-753.3651895964,312.3132078938,1489.3147477964,-6398.873120047,-5552.1384574058,-6599.3873580809,-1018.915100481,8920.0783234257,4645.4017836239,3448.5245102168,5167.9638394714,5564.9465773348,5730.4450417764,5731.0619322552,5564.6115213149,3582.251875369,1812.7703640899,203.7540700234,-3708.3424626201,-4458.9998715256,-3715.2869833515,-4011.4984460266,-3749.9808492769,-2703.2904200554,-330.0946422374,1438.6246803446,257.7931574486,-1298.7960733729,356.6560330022,191.9079417823,229.1634727014,-237.0554958896,496.5418467535,-26.6144260906,-2202.1384531958,-4157.0182675766,-6416.0948017345,-6765.3281123368,-1212.6132686241,6572.3013392246,5670.9978228536,5333.6182615069,5498.8681898351,5564.9529233107,5731.7312754459,5730.6198795623,5333.2718596353,2974.796074171,2145.7702035755,1502.8770268899,-1996.9412519492,-5088.076704375,-4921.1565969516,-3648.4522250188,-3231.0198339801,160.7470366429,1249.9107995654,4016.6598541833,4835.8080403556,4077.8711680339,4466.7225015885,2056.9459728394,-470.3896422553,-554.807954517,-1837.295605955,709.357642131,-7698.3226880426,-5219.1474446916,-5787.4394704686,-6599.8868937507,-3709.6316504522,-700.8514241919,6618.2288202205,5788.8358731554,5498.9224656703,5499.5010002507,5730.4502934305,5731.085203356,5730.8610316981,5167.2015426191,3351.9823085876,2097.4765525416,-1748.0256075185,-4921.6590885142,-5087.6400462256,-3627.8458379119,-1235.7349412774,1801.7284424578,3721.5122944961,3465.6588481203,4356.282754368,3986.7643540921,4382.2258227388,3036.0423005712,381.2784339253,-1263.3939187047,-1916.0062611096,473.6576442985,1721.4111922801,-1337.2310544898,-791.8046391528,-6398.9807514541,-3709.1296087394,-1307.6819666117,5985.5639387219,5291.9414327077,5167.8738279181,5334.0125470187,5730.4650160359,5730.4230667368,5565.3831795997,4521.1918544841,2995.279732163,2095.3248074093,622.7651313045,-3017.7510812113,-3926.7712980824,